digraph Tree {
node [shape=box, style="filled, rounded", color="black", fontname="helvetica"] ;
edge [fontname="helvetica"] ;
0 [label="Balance <= 1884.34\ngini = 0.32\nsamples = 100.0%\nvalue = [0.8, 0.2]\nclass = E", fillcolor="#eba06a"] ;
1 [label="Male <= 0.5\ngini = 0.23\nsamples = 37.4%\nvalue = [0.87, 0.13]\nclass = E", fillcolor="#e99558"] ;
0 -> 1 [labeldistance=2.5, labelangle=45, headlabel="True"] ;
2 [label="EstimatedSalary <= 168619.21\ngini = 0.27\nsamples = 17.1%\nvalue = [0.84, 0.16]\nclass = E", fillcolor="#ea9a60"] ;
1 -> 2 ;
3 [label="HasCrCard <= 0.5\ngini = 0.25\nsamples = 14.4%\nvalue = [0.85, 0.15]\nclass = E", fillcolor="#e9965b"] ;
2 -> 3 ;
4 [label="EstimatedSalary <= 34861.61\ngini = 0.23\nsamples = 3.9%\nvalue = [0.87, 0.13]\nclass = E", fillcolor="#e99457"] ;
3 -> 4 ;
5 [label="EstimatedSalary <= 10195.9\ngini = 0.03\nsamples = 0.8%\nvalue = [0.98, 0.02]\nclass = E", fillcolor="#e5833d"] ;
4 -> 5 ;
6 [label="NumOfProducts <= 1.5\ngini = 0.08\nsamples = 0.3%\nvalue = [0.96, 0.04]\nclass = E", fillcolor="#e68642"] ;
5 -> 6 ;
7 [label="CreditScore <= 552.0\ngini = 0.38\nsamples = 0.1%\nvalue = [0.75, 0.25]\nclass = E", fillcolor="#eeab7b"] ;
6 -> 7 ;
8 [label="gini = 0.0\nsamples = 0.0%\nvalue = [0.0, 1.0]\nclass = x", fillcolor="#399de5"] ;
7 -> 8 ;
9 [label="gini = 0.0\nsamples = 0.0%\nvalue = [1.0, 0.0]\nclass = E", fillcolor="#e58139"] ;
7 -> 9 ;
10 [label="gini = 0.0\nsamples = 0.2%\nvalue = [1.0, 0.0]\nclass = E", fillcolor="#e58139"] ;
6 -> 10 ;
11 [label="gini = 0.0\nsamples = 0.5%\nvalue = [1.0, 0.0]\nclass = E", fillcolor="#e58139"] ;
5 -> 11 ;
12 [label="Tenure <= 7.5\ngini = 0.28\nsamples = 3.1%\nvalue = [0.84, 0.16]\nclass = E", fillcolor="#ea9a60"] ;
4 -> 12 ;
13 [label="NumOfProducts <= 1.5\ngini = 0.3\nsamples = 2.4%\nvalue = [0.82, 0.18]\nclass = E", fillcolor="#eb9d66"] ;
12 -> 13 ;
14 [label="Age <= 37.5\ngini = 0.47\nsamples = 0.4%\nvalue = [0.37, 0.63]\nclass = x", fillcolor="#add7f4"] ;
13 -> 14 ;
15 [label="Spain <= 0.5\ngini = 0.4\nsamples = 0.2%\nvalue = [0.73, 0.27]\nclass = E", fillcolor="#efb083"] ;
14 -> 15 ;
16 [label="EstimatedSalary <= 131205.6\ngini = 0.44\nsamples = 0.1%\nvalue = [0.67, 0.33]\nclass = E", fillcolor="#f2c09c"] ;
15 -> 16 ;
17 [label="IsActiveMember <= 0.5\ngini = 0.24\nsamples = 0.1%\nvalue = [0.86, 0.14]\nclass = E", fillcolor="#e9965a"] ;
16 -> 17 ;
18 [label="gini = 0.0\nsamples = 0.1%\nvalue = [1.0, 0.0]\nclass = E", fillcolor="#e58139"] ;
17 -> 18 ;
19 [label="CreditScore <= 727.5\ngini = 0.38\nsamples = 0.0%\nvalue = [0.75, 0.25]\nclass = E", fillcolor="#eeab7b"] ;
17 -> 19 ;
20 [label="gini = 0.0\nsamples = 0.0%\nvalue = [0.0, 1.0]\nclass = x", fillcolor="#399de5"] ;
19 -> 20 ;
21 [label="gini = 0.0\nsamples = 0.0%\nvalue = [1.0, 0.0]\nclass = E", fillcolor="#e58139"] ;
19 -> 21 ;
22 [label="gini = 0.0\nsamples = 0.0%\nvalue = [0.0, 1.0]\nclass = x", fillcolor="#399de5"] ;
16 -> 22 ;
23 [label="gini = 0.0\nsamples = 0.0%\nvalue = [1.0, 0.0]\nclass = E", fillcolor="#e58139"] ;
15 -> 23 ;
24 [label="CreditScore <= 650.0\ngini = 0.22\nsamples = 0.3%\nvalue = [0.12, 0.88]\nclass = x", fillcolor="#55abe9"] ;
14 -> 24 ;
25 [label="Tenure <= 2.5\ngini = 0.44\nsamples = 0.1%\nvalue = [0.33, 0.67]\nclass = x", fillcolor="#9ccef2"] ;
24 -> 25 ;
26 [label="gini = 0.0\nsamples = 0.1%\nvalue = [0.0, 1.0]\nclass = x", fillcolor="#399de5"] ;
25 -> 26 ;
27 [label="Age <= 39.5\ngini = 0.44\nsamples = 0.1%\nvalue = [0.67, 0.33]\nclass = E", fillcolor="#f2c09c"] ;
25 -> 27 ;
28 [label="gini = 0.0\nsamples = 0.0%\nvalue = [0.0, 1.0]\nclass = x", fillcolor="#399de5"] ;
27 -> 28 ;
29 [label="gini = 0.0\nsamples = 0.0%\nvalue = [1.0, 0.0]\nclass = E", fillcolor="#e58139"] ;
27 -> 29 ;
30 [label="gini = 0.0\nsamples = 0.1%\nvalue = [0.0, 1.0]\nclass = x", fillcolor="#399de5"] ;
24 -> 30 ;
31 [label="Spain <= 0.5\ngini = 0.17\nsamples = 2.0%\nvalue = [0.91, 0.09]\nclass = E", fillcolor="#e88e4d"] ;
13 -> 31 ;
32 [label="Age <= 70.0\ngini = 0.13\nsamples = 1.3%\nvalue = [0.93, 0.07]\nclass = E", fillcolor="#e78b48"] ;
31 -> 32 ;
33 [label="CreditScore <= 687.5\ngini = 0.11\nsamples = 1.2%\nvalue = [0.94, 0.06]\nclass = E", fillcolor="#e78946"] ;
32 -> 33 ;
34 [label="CreditScore <= 681.0\ngini = 0.18\nsamples = 0.7%\nvalue = [0.9, 0.1]\nclass = E", fillcolor="#e88f4f"] ;
33 -> 34 ;
35 [label="Tenure <= 0.5\ngini = 0.08\nsamples = 0.6%\nvalue = [0.96, 0.04]\nclass = E", fillcolor="#e68742"] ;
34 -> 35 ;
36 [label="gini = 0.0\nsamples = 0.0%\nvalue = [0.0, 1.0]\nclass = x", fillcolor="#399de5"] ;
35 -> 36 ;
37 [label="NumOfProducts <= 2.5\ngini = 0.04\nsamples = 0.6%\nvalue = [0.98, 0.02]\nclass = E", fillcolor="#e6843d"] ;
35 -> 37 ;
38 [label="gini = 0.0\nsamples = 0.6%\nvalue = [1.0, 0.0]\nclass = E", fillcolor="#e58139"] ;
37 -> 38 ;
39 [label="gini = 0.0\nsamples = 0.0%\nvalue = [0.0, 1.0]\nclass = x", fillcolor="#399de5"] ;
37 -> 39 ;
40 [label="EstimatedSalary <= 122737.66\ngini = 0.38\nsamples = 0.1%\nvalue = [0.25, 0.75]\nclass = x", fillcolor="#7bbeee"] ;
34 -> 40 ;
41 [label="gini = 0.0\nsamples = 0.0%\nvalue = [0.0, 1.0]\nclass = x", fillcolor="#399de5"] ;
40 -> 41 ;
42 [label="gini = 0.0\nsamples = 0.0%\nvalue = [1.0, 0.0]\nclass = E", fillcolor="#e58139"] ;
40 -> 42 ;
43 [label="gini = 0.0\nsamples = 0.5%\nvalue = [1.0, 0.0]\nclass = E", fillcolor="#e58139"] ;
33 -> 43 ;
44 [label="IsActiveMember <= 0.5\ngini = 0.5\nsamples = 0.0%\nvalue = [0.5, 0.5]\nclass = E", fillcolor="#ffffff"] ;
32 -> 44 ;
45 [label="gini = 0.0\nsamples = 0.0%\nvalue = [0.0, 1.0]\nclass = x", fillcolor="#399de5"] ;
44 -> 45 ;
46 [label="gini = 0.0\nsamples = 0.0%\nvalue = [1.0, 0.0]\nclass = E", fillcolor="#e58139"] ;
44 -> 46 ;
47 [label="NumOfProducts <= 2.5\ngini = 0.23\nsamples = 0.7%\nvalue = [0.87, 0.13]\nclass = E", fillcolor="#e99457"] ;
31 -> 47 ;
48 [label="Tenure <= 6.5\ngini = 0.13\nsamples = 0.7%\nvalue = [0.93, 0.07]\nclass = E", fillcolor="#e78b48"] ;
47 -> 48 ;
49 [label="gini = 0.0\nsamples = 0.6%\nvalue = [1.0, 0.0]\nclass = E", fillcolor="#e58139"] ;
48 -> 49 ;
50 [label="EstimatedSalary <= 126841.22\ngini = 0.47\nsamples = 0.1%\nvalue = [0.62, 0.38]\nclass = E", fillcolor="#f5cdb0"] ;
48 -> 50 ;
51 [label="gini = 0.0\nsamples = 0.0%\nvalue = [1.0, 0.0]\nclass = E", fillcolor="#e58139"] ;
50 -> 51 ;
52 [label="Age <= 50.0\ngini = 0.38\nsamples = 0.0%\nvalue = [0.25, 0.75]\nclass = x", fillcolor="#7bbeee"] ;
50 -> 52 ;
53 [label="gini = 0.0\nsamples = 0.0%\nvalue = [0.0, 1.0]\nclass = x", fillcolor="#399de5"] ;
52 -> 53 ;
54 [label="gini = 0.0\nsamples = 0.0%\nvalue = [1.0, 0.0]\nclass = E", fillcolor="#e58139"] ;
52 -> 54 ;
55 [label="Tenure <= 4.0\ngini = 0.38\nsamples = 0.1%\nvalue = [0.25, 0.75]\nclass = x", fillcolor="#7bbeee"] ;
47 -> 55 ;
56 [label="gini = 0.0\nsamples = 0.0%\nvalue = [1.0, 0.0]\nclass = E", fillcolor="#e58139"] ;
55 -> 56 ;
57 [label="gini = 0.0\nsamples = 0.0%\nvalue = [0.0, 1.0]\nclass = x", fillcolor="#399de5"] ;
55 -> 57 ;
58 [label="Age <= 55.0\ngini = 0.17\nsamples = 0.7%\nvalue = [0.9, 0.1]\nclass = E", fillcolor="#e88e4e"] ;
12 -> 58 ;
59 [label="Tenure <= 8.5\ngini = 0.05\nsamples = 0.7%\nvalue = [0.97, 0.03]\nclass = E", fillcolor="#e6843e"] ;
58 -> 59 ;
60 [label="CreditScore <= 809.0\ngini = 0.12\nsamples = 0.3%\nvalue = [0.94, 0.06]\nclass = E", fillcolor="#e78946"] ;
59 -> 60 ;
61 [label="gini = 0.0\nsamples = 0.2%\nvalue = [1.0, 0.0]\nclass = E", fillcolor="#e58139"] ;
60 -> 61 ;
62 [label="IsActiveMember <= 0.5\ngini = 0.5\nsamples = 0.0%\nvalue = [0.5, 0.5]\nclass = E", fillcolor="#ffffff"] ;
60 -> 62 ;
63 [label="gini = 0.0\nsamples = 0.0%\nvalue = [1.0, 0.0]\nclass = E", fillcolor="#e58139"] ;
62 -> 63 ;
64 [label="gini = 0.0\nsamples = 0.0%\nvalue = [0.0, 1.0]\nclass = x", fillcolor="#399de5"] ;
62 -> 64 ;
65 [label="gini = 0.0\nsamples = 0.4%\nvalue = [1.0, 0.0]\nclass = E", fillcolor="#e58139"] ;
59 -> 65 ;
66 [label="gini = 0.0\nsamples = 0.0%\nvalue = [0.0, 1.0]\nclass = x", fillcolor="#399de5"] ;
58 -> 66 ;
67 [label="Spain <= 0.5\ngini = 0.25\nsamples = 10.5%\nvalue = [0.85, 0.15]\nclass = E", fillcolor="#ea975c"] ;
3 -> 67 ;
68 [label="Tenure <= 1.5\ngini = 0.27\nsamples = 7.0%\nvalue = [0.84, 0.16]\nclass = E", fillcolor="#ea9a60"] ;
67 -> 68 ;
69 [label="Age <= 44.5\ngini = 0.38\nsamples = 1.2%\nvalue = [0.74, 0.26]\nclass = E", fillcolor="#eead7e"] ;
68 -> 69 ;
70 [label="NumOfProducts <= 1.5\ngini = 0.23\nsamples = 0.8%\nvalue = [0.87, 0.13]\nclass = E", fillcolor="#e99457"] ;
69 -> 70 ;
71 [label="Tenure <= 0.5\ngini = 0.44\nsamples = 0.2%\nvalue = [0.67, 0.33]\nclass = E", fillcolor="#f2c09c"] ;
70 -> 71 ;
72 [label="gini = 0.0\nsamples = 0.1%\nvalue = [1.0, 0.0]\nclass = E", fillcolor="#e58139"] ;
71 -> 72 ;
73 [label="Age <= 37.0\ngini = 0.5\nsamples = 0.2%\nvalue = [0.54, 0.46]\nclass = E", fillcolor="#fbede3"] ;
71 -> 73 ;
74 [label="gini = 0.0\nsamples = 0.1%\nvalue = [1.0, 0.0]\nclass = E", fillcolor="#e58139"] ;
73 -> 74 ;
75 [label="Age <= 43.0\ngini = 0.24\nsamples = 0.1%\nvalue = [0.14, 0.86]\nclass = x", fillcolor="#5aade9"] ;
73 -> 75 ;
76 [label="gini = 0.0\nsamples = 0.1%\nvalue = [0.0, 1.0]\nclass = x", fillcolor="#399de5"] ;
75 -> 76 ;
77 [label="gini = 0.0\nsamples = 0.0%\nvalue = [1.0, 0.0]\nclass = E", fillcolor="#e58139"] ;
75 -> 77 ;
78 [label="IsActiveMember <= 0.5\ngini = 0.09\nsamples = 0.6%\nvalue = [0.95, 0.05]\nclass = E", fillcolor="#e68743"] ;
70 -> 78 ;
79 [label="CreditScore <= 684.0\ngini = 0.06\nsamples = 0.4%\nvalue = [0.97, 0.03]\nclass = E", fillcolor="#e6853f"] ;
78 -> 79 ;
80 [label="gini = 0.0\nsamples = 0.3%\nvalue = [1.0, 0.0]\nclass = E", fillcolor="#e58139"] ;
79 -> 80 ;
81 [label="Tenure <= 0.5\ngini = 0.14\nsamples = 0.1%\nvalue = [0.92, 0.08]\nclass = E", fillcolor="#e78c49"] ;
79 -> 81 ;
82 [label="CreditScore <= 701.0\ngini = 0.32\nsamples = 0.0%\nvalue = [0.8, 0.2]\nclass = E", fillcolor="#eca06a"] ;
81 -> 82 ;
83 [label="gini = 0.0\nsamples = 0.0%\nvalue = [0.0, 1.0]\nclass = x", fillcolor="#399de5"] ;
82 -> 83 ;
84 [label="gini = 0.0\nsamples = 0.0%\nvalue = [1.0, 0.0]\nclass = E", fillcolor="#e58139"] ;
82 -> 84 ;
85 [label="gini = 0.0\nsamples = 0.1%\nvalue = [1.0, 0.0]\nclass = E", fillcolor="#e58139"] ;
81 -> 85 ;
86 [label="Age <= 28.5\ngini = 0.22\nsamples = 0.1%\nvalue = [0.88, 0.12]\nclass = E", fillcolor="#e99355"] ;
78 -> 86 ;
87 [label="Age <= 27.0\ngini = 0.5\nsamples = 0.0%\nvalue = [0.5, 0.5]\nclass = E", fillcolor="#ffffff"] ;
86 -> 87 ;
88 [label="gini = 0.0\nsamples = 0.0%\nvalue = [1.0, 0.0]\nclass = E", fillcolor="#e58139"] ;
87 -> 88 ;
89 [label="gini = 0.0\nsamples = 0.0%\nvalue = [0.0, 1.0]\nclass = x", fillcolor="#399de5"] ;
87 -> 89 ;
90 [label="gini = 0.0\nsamples = 0.1%\nvalue = [1.0, 0.0]\nclass = E", fillcolor="#e58139"] ;
86 -> 90 ;
91 [label="CreditScore <= 583.0\ngini = 0.49\nsamples = 0.4%\nvalue = [0.42, 0.58]\nclass = x", fillcolor="#c6e3f8"] ;
69 -> 91 ;
92 [label="gini = 0.0\nsamples = 0.0%\nvalue = [1.0, 0.0]\nclass = E", fillcolor="#e58139"] ;
91 -> 92 ;
93 [label="EstimatedSalary <= 3524.67\ngini = 0.46\nsamples = 0.4%\nvalue = [0.36, 0.64]\nclass = x", fillcolor="#aad5f4"] ;
91 -> 93 ;
94 [label="gini = 0.0\nsamples = 0.0%\nvalue = [1.0, 0.0]\nclass = E", fillcolor="#e58139"] ;
93 -> 94 ;
95 [label="Tenure <= 0.5\ngini = 0.39\nsamples = 0.3%\nvalue = [0.26, 0.74]\nclass = x", fillcolor="#80c0ee"] ;
93 -> 95 ;
96 [label="Age <= 46.0\ngini = 0.32\nsamples = 0.1%\nvalue = [0.2, 0.8]\nclass = x", fillcolor="#6ab6ec"] ;
95 -> 96 ;
97 [label="gini = 0.0\nsamples = 0.0%\nvalue = [1.0, 0.0]\nclass = E", fillcolor="#e58139"] ;
96 -> 97 ;
98 [label="gini = 0.0\nsamples = 0.1%\nvalue = [0.0, 1.0]\nclass = x", fillcolor="#399de5"] ;
96 -> 98 ;
99 [label="EstimatedSalary <= 83371.42\ngini = 0.41\nsamples = 0.2%\nvalue = [0.29, 0.71]\nclass = x", fillcolor="#88c4ef"] ;
95 -> 99 ;
100 [label="CreditScore <= 767.0\ngini = 0.28\nsamples = 0.2%\nvalue = [0.17, 0.83]\nclass = x", fillcolor="#61b1ea"] ;
99 -> 100 ;
101 [label="gini = 0.0\nsamples = 0.2%\nvalue = [0.0, 1.0]\nclass = x", fillcolor="#399de5"] ;
100 -> 101 ;
102 [label="gini = 0.0\nsamples = 0.0%\nvalue = [1.0, 0.0]\nclass = E", fillcolor="#e58139"] ;
100 -> 102 ;
103 [label="gini = 0.0\nsamples = 0.0%\nvalue = [1.0, 0.0]\nclass = E", fillcolor="#e58139"] ;
99 -> 103 ;
104 [label="NumOfProducts <= 1.5\ngini = 0.24\nsamples = 5.8%\nvalue = [0.86, 0.14]\nclass = E", fillcolor="#e9965a"] ;
68 -> 104 ;
105 [label="EstimatedSalary <= 102537.8\ngini = 0.45\nsamples = 1.6%\nvalue = [0.65, 0.35]\nclass = E", fillcolor="#f3c4a2"] ;
104 -> 105 ;
106 [label="Age <= 41.5\ngini = 0.5\nsamples = 0.9%\nvalue = [0.54, 0.46]\nclass = E", fillcolor="#fbebdf"] ;
105 -> 106 ;
107 [label="IsActiveMember <= 0.5\ngini = 0.26\nsamples = 0.5%\nvalue = [0.85, 0.15]\nclass = E", fillcolor="#ea985d"] ;
106 -> 107 ;
108 [label="CreditScore <= 611.5\ngini = 0.44\nsamples = 0.2%\nvalue = [0.67, 0.33]\nclass = E", fillcolor="#f2c09c"] ;
107 -> 108 ;
109 [label="gini = 0.0\nsamples = 0.0%\nvalue = [0.0, 1.0]\nclass = x", fillcolor="#399de5"] ;
108 -> 109 ;
110 [label="CreditScore <= 764.5\ngini = 0.32\nsamples = 0.2%\nvalue = [0.8, 0.2]\nclass = E", fillcolor="#eca06a"] ;
108 -> 110 ;
111 [label="Age <= 39.5\ngini = 0.22\nsamples = 0.1%\nvalue = [0.88, 0.12]\nclass = E", fillcolor="#e99355"] ;
110 -> 111 ;
112 [label="gini = 0.0\nsamples = 0.1%\nvalue = [1.0, 0.0]\nclass = E", fillcolor="#e58139"] ;
111 -> 112 ;
113 [label="EstimatedSalary <= 60354.76\ngini = 0.5\nsamples = 0.0%\nvalue = [0.5, 0.5]\nclass = E", fillcolor="#ffffff"] ;
111 -> 113 ;
114 [label="gini = 0.0\nsamples = 0.0%\nvalue = [1.0, 0.0]\nclass = E", fillcolor="#e58139"] ;
113 -> 114 ;
115 [label="gini = 0.0\nsamples = 0.0%\nvalue = [0.0, 1.0]\nclass = x", fillcolor="#399de5"] ;
113 -> 115 ;
116 [label="Age <= 36.0\ngini = 0.5\nsamples = 0.0%\nvalue = [0.5, 0.5]\nclass = E", fillcolor="#ffffff"] ;
110 -> 116 ;
117 [label="gini = 0.0\nsamples = 0.0%\nvalue = [0.0, 1.0]\nclass = x", fillcolor="#399de5"] ;
116 -> 117 ;
118 [label="gini = 0.0\nsamples = 0.0%\nvalue = [1.0, 0.0]\nclass = E", fillcolor="#e58139"] ;
116 -> 118 ;
119 [label="gini = 0.0\nsamples = 0.2%\nvalue = [1.0, 0.0]\nclass = E", fillcolor="#e58139"] ;
107 -> 119 ;
120 [label="IsActiveMember <= 0.5\ngini = 0.41\nsamples = 0.5%\nvalue = [0.29, 0.71]\nclass = x", fillcolor="#8ac5f0"] ;
106 -> 120 ;
121 [label="Tenure <= 5.5\ngini = 0.22\nsamples = 0.2%\nvalue = [0.12, 0.88]\nclass = x", fillcolor="#55abe9"] ;
120 -> 121 ;
122 [label="gini = 0.0\nsamples = 0.1%\nvalue = [0.0, 1.0]\nclass = x", fillcolor="#399de5"] ;
121 -> 122 ;
123 [label="Tenure <= 6.5\ngini = 0.35\nsamples = 0.1%\nvalue = [0.22, 0.78]\nclass = x", fillcolor="#72b9ec"] ;
121 -> 123 ;
124 [label="gini = 0.0\nsamples = 0.0%\nvalue = [1.0, 0.0]\nclass = E", fillcolor="#e58139"] ;
123 -> 124 ;
125 [label="gini = 0.0\nsamples = 0.1%\nvalue = [0.0, 1.0]\nclass = x", fillcolor="#399de5"] ;
123 -> 125 ;
126 [label="Age <= 58.0\ngini = 0.5\nsamples = 0.2%\nvalue = [0.47, 0.53]\nclass = x", fillcolor="#e6f3fc"] ;
120 -> 126 ;
127 [label="EstimatedSalary <= 60763.77\ngini = 0.32\nsamples = 0.1%\nvalue = [0.2, 0.8]\nclass = x", fillcolor="#6ab6ec"] ;
126 -> 127 ;
128 [label="EstimatedSalary <= 31833.2\ngini = 0.44\nsamples = 0.0%\nvalue = [0.67, 0.33]\nclass = E", fillcolor="#f2c09c"] ;
127 -> 128 ;
129 [label="gini = 0.0\nsamples = 0.0%\nvalue = [0.0, 1.0]\nclass = x", fillcolor="#399de5"] ;
128 -> 129 ;
130 [label="gini = 0.0\nsamples = 0.0%\nvalue = [1.0, 0.0]\nclass = E", fillcolor="#e58139"] ;
128 -> 130 ;
131 [label="gini = 0.0\nsamples = 0.1%\nvalue = [0.0, 1.0]\nclass = x", fillcolor="#399de5"] ;
127 -> 131 ;
132 [label="gini = 0.0\nsamples = 0.1%\nvalue = [1.0, 0.0]\nclass = E", fillcolor="#e58139"] ;
126 -> 132 ;
133 [label="Tenure <= 8.5\ngini = 0.33\nsamples = 0.7%\nvalue = [0.79, 0.21]\nclass = E", fillcolor="#eca36f"] ;
105 -> 133 ;
134 [label="IsActiveMember <= 0.5\ngini = 0.39\nsamples = 0.6%\nvalue = [0.73, 0.27]\nclass = E", fillcolor="#efb082"] ;
133 -> 134 ;
135 [label="CreditScore <= 668.0\ngini = 0.46\nsamples = 0.2%\nvalue = [0.36, 0.64]\nclass = x", fillcolor="#aad5f4"] ;
134 -> 135 ;
136 [label="CreditScore <= 559.5\ngini = 0.49\nsamples = 0.2%\nvalue = [0.57, 0.43]\nclass = E", fillcolor="#f8e0ce"] ;
135 -> 136 ;
137 [label="gini = 0.0\nsamples = 0.1%\nvalue = [0.0, 1.0]\nclass = x", fillcolor="#399de5"] ;
136 -> 137 ;
138 [label="gini = 0.0\nsamples = 0.1%\nvalue = [1.0, 0.0]\nclass = E", fillcolor="#e58139"] ;
136 -> 138 ;
139 [label="gini = 0.0\nsamples = 0.1%\nvalue = [0.0, 1.0]\nclass = x", fillcolor="#399de5"] ;
135 -> 139 ;
140 [label="Age <= 33.5\ngini = 0.2\nsamples = 0.4%\nvalue = [0.88, 0.12]\nclass = E", fillcolor="#e89153"] ;
134 -> 140 ;
141 [label="EstimatedSalary <= 147549.08\ngini = 0.38\nsamples = 0.1%\nvalue = [0.75, 0.25]\nclass = E", fillcolor="#eeab7b"] ;
140 -> 141 ;
142 [label="Age <= 32.5\ngini = 0.5\nsamples = 0.1%\nvalue = [0.5, 0.5]\nclass = E", fillcolor="#ffffff"] ;
141 -> 142 ;
143 [label="gini = 0.0\nsamples = 0.0%\nvalue = [1.0, 0.0]\nclass = E", fillcolor="#e58139"] ;
142 -> 143 ;
144 [label="gini = 0.0\nsamples = 0.0%\nvalue = [0.0, 1.0]\nclass = x", fillcolor="#399de5"] ;
142 -> 144 ;
145 [label="gini = 0.0\nsamples = 0.0%\nvalue = [1.0, 0.0]\nclass = E", fillcolor="#e58139"] ;
141 -> 145 ;
146 [label="Age <= 43.5\ngini = 0.1\nsamples = 0.3%\nvalue = [0.94, 0.06]\nclass = E", fillcolor="#e78845"] ;
140 -> 146 ;
147 [label="EstimatedSalary <= 143965.44\ngini = 0.2\nsamples = 0.2%\nvalue = [0.89, 0.11]\nclass = E", fillcolor="#e89152"] ;
146 -> 147 ;
148 [label="EstimatedSalary <= 141926.88\ngini = 0.38\nsamples = 0.1%\nvalue = [0.75, 0.25]\nclass = E", fillcolor="#eeab7b"] ;
147 -> 148 ;
149 [label="gini = 0.0\nsamples = 0.1%\nvalue = [1.0, 0.0]\nclass = E", fillcolor="#e58139"] ;
148 -> 149 ;
150 [label="gini = 0.0\nsamples = 0.0%\nvalue = [0.0, 1.0]\nclass = x", fillcolor="#399de5"] ;
148 -> 150 ;
151 [label="gini = 0.0\nsamples = 0.1%\nvalue = [1.0, 0.0]\nclass = E", fillcolor="#e58139"] ;
147 -> 151 ;
152 [label="gini = 0.0\nsamples = 0.1%\nvalue = [1.0, 0.0]\nclass = E", fillcolor="#e58139"] ;
146 -> 152 ;
153 [label="gini = 0.0\nsamples = 0.1%\nvalue = [1.0, 0.0]\nclass = E", fillcolor="#e58139"] ;
133 -> 153 ;
154 [label="IsActiveMember <= 0.5\ngini = 0.13\nsamples = 4.2%\nvalue = [0.93, 0.07]\nclass = E", fillcolor="#e78b48"] ;
104 -> 154 ;
155 [label="Tenure <= 9.5\ngini = 0.2\nsamples = 1.9%\nvalue = [0.89, 0.11]\nclass = E", fillcolor="#e89152"] ;
154 -> 155 ;
156 [label="Tenure <= 5.5\ngini = 0.17\nsamples = 1.8%\nvalue = [0.91, 0.09]\nclass = E", fillcolor="#e88e4d"] ;
155 -> 156 ;
157 [label="EstimatedSalary <= 101847.42\ngini = 0.23\nsamples = 1.1%\nvalue = [0.87, 0.13]\nclass = E", fillcolor="#e99457"] ;
156 -> 157 ;
158 [label="Age <= 43.5\ngini = 0.36\nsamples = 0.7%\nvalue = [0.76, 0.24]\nclass = E", fillcolor="#eda876"] ;
157 -> 158 ;
159 [label="Age <= 30.5\ngini = 0.26\nsamples = 0.5%\nvalue = [0.85, 0.15]\nclass = E", fillcolor="#ea985c"] ;
158 -> 159 ;
160 [label="gini = 0.0\nsamples = 0.1%\nvalue = [1.0, 0.0]\nclass = E", fillcolor="#e58139"] ;
159 -> 160 ;
161 [label="CreditScore <= 593.0\ngini = 0.3\nsamples = 0.4%\nvalue = [0.81, 0.19]\nclass = E", fillcolor="#eb9e66"] ;
159 -> 161 ;
162 [label="gini = 0.0\nsamples = 0.1%\nvalue = [1.0, 0.0]\nclass = E", fillcolor="#e58139"] ;
161 -> 162 ;
163 [label="CreditScore <= 699.5\ngini = 0.39\nsamples = 0.3%\nvalue = [0.74, 0.26]\nclass = E", fillcolor="#eeae80"] ;
161 -> 163 ;
164 [label="Tenure <= 4.5\ngini = 0.44\nsamples = 0.1%\nvalue = [0.33, 0.67]\nclass = x", fillcolor="#9ccef2"] ;
163 -> 164 ;
165 [label="CreditScore <= 633.0\ngini = 0.32\nsamples = 0.1%\nvalue = [0.2, 0.8]\nclass = x", fillcolor="#6ab6ec"] ;
164 -> 165 ;
166 [label="gini = 0.0\nsamples = 0.0%\nvalue = [0.0, 1.0]\nclass = x", fillcolor="#399de5"] ;
165 -> 166 ;
167 [label="EstimatedSalary <= 47884.52\ngini = 0.44\nsamples = 0.0%\nvalue = [0.33, 0.67]\nclass = x", fillcolor="#9ccef2"] ;
165 -> 167 ;
168 [label="gini = 0.0\nsamples = 0.0%\nvalue = [1.0, 0.0]\nclass = E", fillcolor="#e58139"] ;
167 -> 168 ;
169 [label="gini = 0.0\nsamples = 0.0%\nvalue = [0.0, 1.0]\nclass = x", fillcolor="#399de5"] ;
167 -> 169 ;
170 [label="gini = 0.0\nsamples = 0.0%\nvalue = [1.0, 0.0]\nclass = E", fillcolor="#e58139"] ;
164 -> 170 ;
171 [label="EstimatedSalary <= 4119.3\ngini = 0.14\nsamples = 0.2%\nvalue = [0.92, 0.08]\nclass = E", fillcolor="#e78c49"] ;
163 -> 171 ;
172 [label="Age <= 40.0\ngini = 0.5\nsamples = 0.0%\nvalue = [0.5, 0.5]\nclass = E", fillcolor="#ffffff"] ;
171 -> 172 ;
173 [label="gini = 0.0\nsamples = 0.0%\nvalue = [1.0, 0.0]\nclass = E", fillcolor="#e58139"] ;
172 -> 173 ;
174 [label="gini = 0.0\nsamples = 0.0%\nvalue = [0.0, 1.0]\nclass = x", fillcolor="#399de5"] ;
172 -> 174 ;
175 [label="gini = 0.0\nsamples = 0.2%\nvalue = [1.0, 0.0]\nclass = E", fillcolor="#e58139"] ;
171 -> 175 ;
176 [label="CreditScore <= 527.5\ngini = 0.32\nsamples = 0.1%\nvalue = [0.2, 0.8]\nclass = x", fillcolor="#6ab6ec"] ;
158 -> 176 ;
177 [label="gini = 0.0\nsamples = 0.0%\nvalue = [1.0, 0.0]\nclass = E", fillcolor="#e58139"] ;
176 -> 177 ;
178 [label="gini = 0.0\nsamples = 0.1%\nvalue = [0.0, 1.0]\nclass = x", fillcolor="#399de5"] ;
176 -> 178 ;
179 [label="CreditScore <= 464.5\ngini = 0.05\nsamples = 0.5%\nvalue = [0.97, 0.03]\nclass = E", fillcolor="#e6843e"] ;
157 -> 179 ;
180 [label="EstimatedSalary <= 132154.41\ngini = 0.5\nsamples = 0.0%\nvalue = [0.5, 0.5]\nclass = E", fillcolor="#ffffff"] ;
179 -> 180 ;
181 [label="gini = 0.0\nsamples = 0.0%\nvalue = [1.0, 0.0]\nclass = E", fillcolor="#e58139"] ;
180 -> 181 ;
182 [label="gini = 0.0\nsamples = 0.0%\nvalue = [0.0, 1.0]\nclass = x", fillcolor="#399de5"] ;
180 -> 182 ;
183 [label="gini = 0.0\nsamples = 0.4%\nvalue = [1.0, 0.0]\nclass = E", fillcolor="#e58139"] ;
179 -> 183 ;
184 [label="EstimatedSalary <= 138232.34\ngini = 0.04\nsamples = 0.7%\nvalue = [0.98, 0.02]\nclass = E", fillcolor="#e6843d"] ;
156 -> 184 ;
185 [label="gini = 0.0\nsamples = 0.6%\nvalue = [1.0, 0.0]\nclass = E", fillcolor="#e58139"] ;
184 -> 185 ;
186 [label="CreditScore <= 694.5\ngini = 0.28\nsamples = 0.1%\nvalue = [0.83, 0.17]\nclass = E", fillcolor="#ea9a61"] ;
184 -> 186 ;
187 [label="gini = 0.0\nsamples = 0.1%\nvalue = [1.0, 0.0]\nclass = E", fillcolor="#e58139"] ;
186 -> 187 ;
188 [label="gini = 0.0\nsamples = 0.0%\nvalue = [0.0, 1.0]\nclass = x", fillcolor="#399de5"] ;
186 -> 188 ;
189 [label="Age <= 42.5\ngini = 0.5\nsamples = 0.1%\nvalue = [0.5, 0.5]\nclass = E", fillcolor="#ffffff"] ;
155 -> 189 ;
190 [label="gini = 0.0\nsamples = 0.0%\nvalue = [1.0, 0.0]\nclass = E", fillcolor="#e58139"] ;
189 -> 190 ;
191 [label="Age <= 45.0\ngini = 0.38\nsamples = 0.0%\nvalue = [0.25, 0.75]\nclass = x", fillcolor="#7bbeee"] ;
189 -> 191 ;
192 [label="gini = 0.0\nsamples = 0.0%\nvalue = [0.0, 1.0]\nclass = x", fillcolor="#399de5"] ;
191 -> 192 ;
193 [label="gini = 0.0\nsamples = 0.0%\nvalue = [1.0, 0.0]\nclass = E", fillcolor="#e58139"] ;
191 -> 193 ;
194 [label="Tenure <= 9.5\ngini = 0.08\nsamples = 2.3%\nvalue = [0.96, 0.04]\nclass = E", fillcolor="#e68642"] ;
154 -> 194 ;
195 [label="NumOfProducts <= 2.5\ngini = 0.04\nsamples = 2.0%\nvalue = [0.98, 0.02]\nclass = E", fillcolor="#e6843d"] ;
194 -> 195 ;
196 [label="gini = 0.0\nsamples = 1.9%\nvalue = [1.0, 0.0]\nclass = E", fillcolor="#e58139"] ;
195 -> 196 ;
197 [label="Tenure <= 6.5\ngini = 0.4\nsamples = 0.1%\nvalue = [0.73, 0.27]\nclass = E", fillcolor="#efb083"] ;
195 -> 197 ;
198 [label="Age <= 38.0\ngini = 0.48\nsamples = 0.1%\nvalue = [0.4, 0.6]\nclass = x", fillcolor="#bddef6"] ;
197 -> 198 ;
199 [label="gini = 0.0\nsamples = 0.0%\nvalue = [1.0, 0.0]\nclass = E", fillcolor="#e58139"] ;
198 -> 199 ;
200 [label="gini = 0.0\nsamples = 0.0%\nvalue = [0.0, 1.0]\nclass = x", fillcolor="#399de5"] ;
198 -> 200 ;
201 [label="gini = 0.0\nsamples = 0.0%\nvalue = [1.0, 0.0]\nclass = E", fillcolor="#e58139"] ;
197 -> 201 ;
202 [label="Age <= 36.5\ngini = 0.24\nsamples = 0.3%\nvalue = [0.86, 0.14]\nclass = E", fillcolor="#e9965a"] ;
194 -> 202 ;
203 [label="gini = 0.0\nsamples = 0.1%\nvalue = [1.0, 0.0]\nclass = E", fillcolor="#e58139"] ;
202 -> 203 ;
204 [label="EstimatedSalary <= 86170.61\ngini = 0.41\nsamples = 0.2%\nvalue = [0.71, 0.29]\nclass = E", fillcolor="#efb388"] ;
202 -> 204 ;
205 [label="EstimatedSalary <= 7075.9\ngini = 0.32\nsamples = 0.1%\nvalue = [0.2, 0.8]\nclass = x", fillcolor="#6ab6ec"] ;
204 -> 205 ;
206 [label="gini = 0.0\nsamples = 0.0%\nvalue = [1.0, 0.0]\nclass = E", fillcolor="#e58139"] ;
205 -> 206 ;
207 [label="gini = 0.0\nsamples = 0.0%\nvalue = [0.0, 1.0]\nclass = x", fillcolor="#399de5"] ;
205 -> 207 ;
208 [label="gini = 0.0\nsamples = 0.1%\nvalue = [1.0, 0.0]\nclass = E", fillcolor="#e58139"] ;
204 -> 208 ;
209 [label="Tenure <= 9.5\ngini = 0.22\nsamples = 3.5%\nvalue = [0.88, 0.12]\nclass = E", fillcolor="#e99355"] ;
67 -> 209 ;
210 [label="Age <= 41.5\ngini = 0.2\nsamples = 3.3%\nvalue = [0.89, 0.11]\nclass = E", fillcolor="#e89152"] ;
209 -> 210 ;
211 [label="Age <= 35.5\ngini = 0.12\nsamples = 2.3%\nvalue = [0.93, 0.07]\nclass = E", fillcolor="#e78a47"] ;
210 -> 211 ;
212 [label="NumOfProducts <= 1.5\ngini = 0.17\nsamples = 1.4%\nvalue = [0.9, 0.1]\nclass = E", fillcolor="#e88e4e"] ;
211 -> 212 ;
213 [label="EstimatedSalary <= 36253.59\ngini = 0.44\nsamples = 0.3%\nvalue = [0.67, 0.33]\nclass = E", fillcolor="#f2c09c"] ;
212 -> 213 ;
214 [label="gini = 0.0\nsamples = 0.0%\nvalue = [0.0, 1.0]\nclass = x", fillcolor="#399de5"] ;
213 -> 214 ;
215 [label="CreditScore <= 723.0\ngini = 0.35\nsamples = 0.3%\nvalue = [0.78, 0.22]\nclass = E", fillcolor="#eca572"] ;
213 -> 215 ;
216 [label="Age <= 31.5\ngini = 0.23\nsamples = 0.2%\nvalue = [0.87, 0.13]\nclass = E", fillcolor="#e99457"] ;
215 -> 216 ;
217 [label="gini = 0.0\nsamples = 0.1%\nvalue = [1.0, 0.0]\nclass = E", fillcolor="#e58139"] ;
216 -> 217 ;
218 [label="Tenure <= 7.0\ngini = 0.48\nsamples = 0.1%\nvalue = [0.6, 0.4]\nclass = E", fillcolor="#f6d5bd"] ;
216 -> 218 ;
219 [label="CreditScore <= 534.5\ngini = 0.44\nsamples = 0.1%\nvalue = [0.33, 0.67]\nclass = x", fillcolor="#9ccef2"] ;
218 -> 219 ;
220 [label="gini = 0.0\nsamples = 0.0%\nvalue = [0.0, 1.0]\nclass = x", fillcolor="#399de5"] ;
219 -> 220 ;
221 [label="IsActiveMember <= 0.5\ngini = 0.5\nsamples = 0.0%\nvalue = [0.5, 0.5]\nclass = E", fillcolor="#ffffff"] ;
219 -> 221 ;
222 [label="gini = 0.0\nsamples = 0.0%\nvalue = [1.0, 0.0]\nclass = E", fillcolor="#e58139"] ;
221 -> 222 ;
223 [label="gini = 0.0\nsamples = 0.0%\nvalue = [0.0, 1.0]\nclass = x", fillcolor="#399de5"] ;
221 -> 223 ;
224 [label="gini = 0.0\nsamples = 0.0%\nvalue = [1.0, 0.0]\nclass = E", fillcolor="#e58139"] ;
218 -> 224 ;
225 [label="IsActiveMember <= 0.5\ngini = 0.44\nsamples = 0.0%\nvalue = [0.33, 0.67]\nclass = x", fillcolor="#9ccef2"] ;
215 -> 225 ;
226 [label="gini = 0.0\nsamples = 0.0%\nvalue = [0.0, 1.0]\nclass = x", fillcolor="#399de5"] ;
225 -> 226 ;
227 [label="gini = 0.0\nsamples = 0.0%\nvalue = [1.0, 0.0]\nclass = E", fillcolor="#e58139"] ;
225 -> 227 ;
228 [label="EstimatedSalary <= 34431.17\ngini = 0.05\nsamples = 1.1%\nvalue = [0.97, 0.03]\nclass = E", fillcolor="#e6853f"] ;
212 -> 228 ;
229 [label="Age <= 32.5\ngini = 0.26\nsamples = 0.2%\nvalue = [0.85, 0.15]\nclass = E", fillcolor="#ea985d"] ;
228 -> 229 ;
230 [label="CreditScore <= 665.5\ngini = 0.35\nsamples = 0.2%\nvalue = [0.78, 0.22]\nclass = E", fillcolor="#eca572"] ;
229 -> 230 ;
231 [label="Tenure <= 6.0\ngini = 0.5\nsamples = 0.0%\nvalue = [0.5, 0.5]\nclass = E", fillcolor="#ffffff"] ;
230 -> 231 ;
232 [label="gini = 0.0\nsamples = 0.0%\nvalue = [1.0, 0.0]\nclass = E", fillcolor="#e58139"] ;
231 -> 232 ;
233 [label="gini = 0.0\nsamples = 0.0%\nvalue = [0.0, 1.0]\nclass = x", fillcolor="#399de5"] ;
231 -> 233 ;
234 [label="IsActiveMember <= 0.5\ngini = 0.24\nsamples = 0.1%\nvalue = [0.86, 0.14]\nclass = E", fillcolor="#e9965a"] ;
230 -> 234 ;
235 [label="gini = 0.0\nsamples = 0.0%\nvalue = [1.0, 0.0]\nclass = E", fillcolor="#e58139"] ;
234 -> 235 ;
236 [label="CreditScore <= 715.0\ngini = 0.38\nsamples = 0.1%\nvalue = [0.75, 0.25]\nclass = E", fillcolor="#eeab7b"] ;
234 -> 236 ;
237 [label="gini = 0.0\nsamples = 0.0%\nvalue = [1.0, 0.0]\nclass = E", fillcolor="#e58139"] ;
236 -> 237 ;
238 [label="gini = 0.0\nsamples = 0.0%\nvalue = [0.0, 1.0]\nclass = x", fillcolor="#399de5"] ;
236 -> 238 ;
239 [label="gini = 0.0\nsamples = 0.0%\nvalue = [1.0, 0.0]\nclass = E", fillcolor="#e58139"] ;
229 -> 239 ;
240 [label="gini = 0.0\nsamples = 0.9%\nvalue = [1.0, 0.0]\nclass = E", fillcolor="#e58139"] ;
228 -> 240 ;
241 [label="NumOfProducts <= 2.5\ngini = 0.05\nsamples = 0.9%\nvalue = [0.97, 0.03]\nclass = E", fillcolor="#e6843e"] ;
211 -> 241 ;
242 [label="gini = 0.0\nsamples = 0.9%\nvalue = [1.0, 0.0]\nclass = E", fillcolor="#e58139"] ;
241 -> 242 ;
243 [label="EstimatedSalary <= 86069.28\ngini = 0.5\nsamples = 0.0%\nvalue = [0.5, 0.5]\nclass = E", fillcolor="#ffffff"] ;
241 -> 243 ;
244 [label="gini = 0.0\nsamples = 0.0%\nvalue = [1.0, 0.0]\nclass = E", fillcolor="#e58139"] ;
243 -> 244 ;
245 [label="gini = 0.0\nsamples = 0.0%\nvalue = [0.0, 1.0]\nclass = x", fillcolor="#399de5"] ;
243 -> 245 ;
246 [label="Tenure <= 4.5\ngini = 0.35\nsamples = 1.0%\nvalue = [0.77, 0.23]\nclass = E", fillcolor="#eda673"] ;
210 -> 246 ;
247 [label="Age <= 56.5\ngini = 0.21\nsamples = 0.6%\nvalue = [0.88, 0.12]\nclass = E", fillcolor="#e89253"] ;
246 -> 247 ;
248 [label="CreditScore <= 768.0\ngini = 0.12\nsamples = 0.5%\nvalue = [0.94, 0.06]\nclass = E", fillcolor="#e78a47"] ;
247 -> 248 ;
249 [label="Age <= 48.5\ngini = 0.06\nsamples = 0.5%\nvalue = [0.97, 0.03]\nclass = E", fillcolor="#e68540"] ;
248 -> 249 ;
250 [label="gini = 0.0\nsamples = 0.3%\nvalue = [1.0, 0.0]\nclass = E", fillcolor="#e58139"] ;
249 -> 250 ;
251 [label="EstimatedSalary <= 84754.3\ngini = 0.15\nsamples = 0.1%\nvalue = [0.92, 0.08]\nclass = E", fillcolor="#e78c4b"] ;
249 -> 251 ;
252 [label="gini = 0.0\nsamples = 0.1%\nvalue = [1.0, 0.0]\nclass = E", fillcolor="#e58139"] ;
251 -> 252 ;
253 [label="EstimatedSalary <= 93668.38\ngini = 0.32\nsamples = 0.1%\nvalue = [0.8, 0.2]\nclass = E", fillcolor="#eca06a"] ;
251 -> 253 ;
254 [label="gini = 0.0\nsamples = 0.0%\nvalue = [0.0, 1.0]\nclass = x", fillcolor="#399de5"] ;
253 -> 254 ;
255 [label="gini = 0.0\nsamples = 0.0%\nvalue = [1.0, 0.0]\nclass = E", fillcolor="#e58139"] ;
253 -> 255 ;
256 [label="gini = 0.0\nsamples = 0.0%\nvalue = [0.0, 1.0]\nclass = x", fillcolor="#399de5"] ;
248 -> 256 ;
257 [label="IsActiveMember <= 0.5\ngini = 0.38\nsamples = 0.2%\nvalue = [0.75, 0.25]\nclass = E", fillcolor="#eeab7b"] ;
247 -> 257 ;
258 [label="gini = 0.0\nsamples = 0.0%\nvalue = [0.0, 1.0]\nclass = x", fillcolor="#399de5"] ;
257 -> 258 ;
259 [label="gini = 0.0\nsamples = 0.1%\nvalue = [1.0, 0.0]\nclass = E", fillcolor="#e58139"] ;
257 -> 259 ;
260 [label="IsActiveMember <= 0.5\ngini = 0.49\nsamples = 0.4%\nvalue = [0.57, 0.43]\nclass = E", fillcolor="#f9e2d1"] ;
246 -> 260 ;
261 [label="NumOfProducts <= 1.5\ngini = 0.43\nsamples = 0.2%\nvalue = [0.31, 0.69]\nclass = x", fillcolor="#91c9f1"] ;
260 -> 261 ;
262 [label="gini = 0.0\nsamples = 0.1%\nvalue = [0.0, 1.0]\nclass = x", fillcolor="#399de5"] ;
261 -> 262 ;
263 [label="NumOfProducts <= 2.5\ngini = 0.5\nsamples = 0.1%\nvalue = [0.5, 0.5]\nclass = E", fillcolor="#ffffff"] ;
261 -> 263 ;
264 [label="Tenure <= 6.0\ngini = 0.32\nsamples = 0.1%\nvalue = [0.8, 0.2]\nclass = E", fillcolor="#eca06a"] ;
263 -> 264 ;
265 [label="gini = 0.0\nsamples = 0.0%\nvalue = [1.0, 0.0]\nclass = E", fillcolor="#e58139"] ;
264 -> 265 ;
266 [label="Tenure <= 7.5\ngini = 0.38\nsamples = 0.1%\nvalue = [0.75, 0.25]\nclass = E", fillcolor="#eeab7b"] ;
264 -> 266 ;
267 [label="EstimatedSalary <= 53406.65\ngini = 0.44\nsamples = 0.0%\nvalue = [0.67, 0.33]\nclass = E", fillcolor="#f2c09c"] ;
266 -> 267 ;
268 [label="gini = 0.0\nsamples = 0.0%\nvalue = [1.0, 0.0]\nclass = E", fillcolor="#e58139"] ;
267 -> 268 ;
269 [label="gini = 0.0\nsamples = 0.0%\nvalue = [0.0, 1.0]\nclass = x", fillcolor="#399de5"] ;
267 -> 269 ;
270 [label="gini = 0.0\nsamples = 0.0%\nvalue = [1.0, 0.0]\nclass = E", fillcolor="#e58139"] ;
266 -> 270 ;
271 [label="gini = 0.0\nsamples = 0.0%\nvalue = [0.0, 1.0]\nclass = x", fillcolor="#399de5"] ;
263 -> 271 ;
272 [label="NumOfProducts <= 1.5\ngini = 0.18\nsamples = 0.2%\nvalue = [0.9, 0.1]\nclass = E", fillcolor="#e88f4f"] ;
260 -> 272 ;
273 [label="Tenure <= 6.5\ngini = 0.32\nsamples = 0.1%\nvalue = [0.8, 0.2]\nclass = E", fillcolor="#eca06a"] ;
272 -> 273 ;
274 [label="gini = 0.0\nsamples = 0.0%\nvalue = [1.0, 0.0]\nclass = E", fillcolor="#e58139"] ;
273 -> 274 ;
275 [label="gini = 0.0\nsamples = 0.0%\nvalue = [0.0, 1.0]\nclass = x", fillcolor="#399de5"] ;
273 -> 275 ;
276 [label="gini = 0.0\nsamples = 0.1%\nvalue = [1.0, 0.0]\nclass = E", fillcolor="#e58139"] ;
272 -> 276 ;
277 [label="Age <= 46.0\ngini = 0.43\nsamples = 0.2%\nvalue = [0.69, 0.31]\nclass = E", fillcolor="#f1ba93"] ;
209 -> 277 ;
278 [label="CreditScore <= 677.5\ngini = 0.17\nsamples = 0.2%\nvalue = [0.91, 0.09]\nclass = E", fillcolor="#e88e4d"] ;
277 -> 278 ;
279 [label="gini = 0.0\nsamples = 0.1%\nvalue = [1.0, 0.0]\nclass = E", fillcolor="#e58139"] ;
278 -> 279 ;
280 [label="Age <= 32.5\ngini = 0.28\nsamples = 0.1%\nvalue = [0.83, 0.17]\nclass = E", fillcolor="#ea9a61"] ;
278 -> 280 ;
281 [label="IsActiveMember <= 0.5\ngini = 0.5\nsamples = 0.0%\nvalue = [0.5, 0.5]\nclass = E", fillcolor="#ffffff"] ;
280 -> 281 ;
282 [label="gini = 0.0\nsamples = 0.0%\nvalue = [0.0, 1.0]\nclass = x", fillcolor="#399de5"] ;
281 -> 282 ;
283 [label="gini = 0.0\nsamples = 0.0%\nvalue = [1.0, 0.0]\nclass = E", fillcolor="#e58139"] ;
281 -> 283 ;
284 [label="gini = 0.0\nsamples = 0.0%\nvalue = [1.0, 0.0]\nclass = E", fillcolor="#e58139"] ;
280 -> 284 ;
285 [label="Age <= 62.0\ngini = 0.32\nsamples = 0.0%\nvalue = [0.2, 0.8]\nclass = x", fillcolor="#6ab6ec"] ;
277 -> 285 ;
286 [label="gini = 0.0\nsamples = 0.0%\nvalue = [0.0, 1.0]\nclass = x", fillcolor="#399de5"] ;
285 -> 286 ;
287 [label="gini = 0.0\nsamples = 0.0%\nvalue = [1.0, 0.0]\nclass = E", fillcolor="#e58139"] ;
285 -> 287 ;
288 [label="EstimatedSalary <= 185620.59\ngini = 0.39\nsamples = 2.7%\nvalue = [0.74, 0.26]\nclass = E", fillcolor="#eeae80"] ;
2 -> 288 ;
289 [label="NumOfProducts <= 1.5\ngini = 0.45\nsamples = 1.7%\nvalue = [0.66, 0.34]\nclass = E", fillcolor="#f3c3a0"] ;
288 -> 289 ;
290 [label="Tenure <= 4.5\ngini = 0.35\nsamples = 0.5%\nvalue = [0.23, 0.77]\nclass = x", fillcolor="#74baed"] ;
289 -> 290 ;
291 [label="CreditScore <= 664.5\ngini = 0.2\nsamples = 0.3%\nvalue = [0.11, 0.89]\nclass = x", fillcolor="#52a9e8"] ;
290 -> 291 ;
292 [label="gini = 0.0\nsamples = 0.1%\nvalue = [0.0, 1.0]\nclass = x", fillcolor="#399de5"] ;
291 -> 292 ;
293 [label="Age <= 39.5\ngini = 0.32\nsamples = 0.2%\nvalue = [0.2, 0.8]\nclass = x", fillcolor="#6ab6ec"] ;
291 -> 293 ;
294 [label="gini = 0.0\nsamples = 0.0%\nvalue = [0.0, 1.0]\nclass = x", fillcolor="#399de5"] ;
293 -> 294 ;
295 [label="CreditScore <= 692.5\ngini = 0.48\nsamples = 0.1%\nvalue = [0.4, 0.6]\nclass = x", fillcolor="#bddef6"] ;
293 -> 295 ;
296 [label="IsActiveMember <= 0.5\ngini = 0.44\nsamples = 0.1%\nvalue = [0.67, 0.33]\nclass = E", fillcolor="#f2c09c"] ;
295 -> 296 ;
297 [label="gini = 0.0\nsamples = 0.0%\nvalue = [1.0, 0.0]\nclass = E", fillcolor="#e58139"] ;
296 -> 297 ;
298 [label="EstimatedSalary <= 180152.92\ngini = 0.5\nsamples = 0.0%\nvalue = [0.5, 0.5]\nclass = E", fillcolor="#ffffff"] ;
296 -> 298 ;
299 [label="gini = 0.0\nsamples = 0.0%\nvalue = [0.0, 1.0]\nclass = x", fillcolor="#399de5"] ;
298 -> 299 ;
300 [label="gini = 0.0\nsamples = 0.0%\nvalue = [1.0, 0.0]\nclass = E", fillcolor="#e58139"] ;
298 -> 300 ;
301 [label="gini = 0.0\nsamples = 0.0%\nvalue = [0.0, 1.0]\nclass = x", fillcolor="#399de5"] ;
295 -> 301 ;
302 [label="CreditScore <= 709.0\ngini = 0.46\nsamples = 0.2%\nvalue = [0.35, 0.65]\nclass = x", fillcolor="#a5d2f3"] ;
290 -> 302 ;
303 [label="Tenure <= 6.5\ngini = 0.5\nsamples = 0.2%\nvalue = [0.5, 0.5]\nclass = E", fillcolor="#ffffff"] ;
302 -> 303 ;
304 [label="gini = 0.0\nsamples = 0.1%\nvalue = [1.0, 0.0]\nclass = E", fillcolor="#e58139"] ;
303 -> 304 ;
305 [label="Tenure <= 8.5\ngini = 0.24\nsamples = 0.1%\nvalue = [0.14, 0.86]\nclass = x", fillcolor="#5aade9"] ;
303 -> 305 ;
306 [label="gini = 0.0\nsamples = 0.0%\nvalue = [0.0, 1.0]\nclass = x", fillcolor="#399de5"] ;
305 -> 306 ;
307 [label="CreditScore <= 628.0\ngini = 0.44\nsamples = 0.0%\nvalue = [0.33, 0.67]\nclass = x", fillcolor="#9ccef2"] ;
305 -> 307 ;
308 [label="gini = 0.0\nsamples = 0.0%\nvalue = [0.0, 1.0]\nclass = x", fillcolor="#399de5"] ;
307 -> 308 ;
309 [label="gini = 0.0\nsamples = 0.0%\nvalue = [1.0, 0.0]\nclass = E", fillcolor="#e58139"] ;
307 -> 309 ;
310 [label="gini = 0.0\nsamples = 0.1%\nvalue = [0.0, 1.0]\nclass = x", fillcolor="#399de5"] ;
302 -> 310 ;
311 [label="Age <= 45.5\ngini = 0.24\nsamples = 1.1%\nvalue = [0.86, 0.14]\nclass = E", fillcolor="#e99558"] ;
289 -> 311 ;
312 [label="Tenure <= 6.5\ngini = 0.19\nsamples = 0.9%\nvalue = [0.9, 0.1]\nclass = E", fillcolor="#e89050"] ;
311 -> 312 ;
313 [label="CreditScore <= 570.0\ngini = 0.24\nsamples = 0.7%\nvalue = [0.86, 0.14]\nclass = E", fillcolor="#e99558"] ;
312 -> 313 ;
314 [label="gini = 0.0\nsamples = 0.2%\nvalue = [1.0, 0.0]\nclass = E", fillcolor="#e58139"] ;
313 -> 314 ;
315 [label="EstimatedSalary <= 170763.48\ngini = 0.29\nsamples = 0.5%\nvalue = [0.82, 0.18]\nclass = E", fillcolor="#eb9c63"] ;
313 -> 315 ;
316 [label="CreditScore <= 608.0\ngini = 0.32\nsamples = 0.1%\nvalue = [0.2, 0.8]\nclass = x", fillcolor="#6ab6ec"] ;
315 -> 316 ;
317 [label="gini = 0.0\nsamples = 0.0%\nvalue = [0.0, 1.0]\nclass = x", fillcolor="#399de5"] ;
316 -> 317 ;
318 [label="Spain <= 0.5\ngini = 0.5\nsamples = 0.0%\nvalue = [0.5, 0.5]\nclass = E", fillcolor="#ffffff"] ;
316 -> 318 ;
319 [label="gini = 0.0\nsamples = 0.0%\nvalue = [0.0, 1.0]\nclass = x", fillcolor="#399de5"] ;
318 -> 319 ;
320 [label="gini = 0.0\nsamples = 0.0%\nvalue = [1.0, 0.0]\nclass = E", fillcolor="#e58139"] ;
318 -> 320 ;
321 [label="Spain <= 0.5\ngini = 0.13\nsamples = 0.4%\nvalue = [0.93, 0.07]\nclass = E", fillcolor="#e78a48"] ;
315 -> 321 ;
322 [label="Tenure <= 2.5\ngini = 0.17\nsamples = 0.3%\nvalue = [0.91, 0.09]\nclass = E", fillcolor="#e88e4d"] ;
321 -> 322 ;
323 [label="IsActiveMember <= 0.5\ngini = 0.44\nsamples = 0.1%\nvalue = [0.67, 0.33]\nclass = E", fillcolor="#f2c09c"] ;
322 -> 323 ;
324 [label="gini = 0.0\nsamples = 0.1%\nvalue = [1.0, 0.0]\nclass = E", fillcolor="#e58139"] ;
323 -> 324 ;
325 [label="Tenure <= 1.5\ngini = 0.44\nsamples = 0.0%\nvalue = [0.33, 0.67]\nclass = x", fillcolor="#9ccef2"] ;
323 -> 325 ;
326 [label="gini = 0.0\nsamples = 0.0%\nvalue = [1.0, 0.0]\nclass = E", fillcolor="#e58139"] ;
325 -> 326 ;
327 [label="gini = 0.0\nsamples = 0.0%\nvalue = [0.0, 1.0]\nclass = x", fillcolor="#399de5"] ;
325 -> 327 ;
328 [label="gini = 0.0\nsamples = 0.2%\nvalue = [1.0, 0.0]\nclass = E", fillcolor="#e58139"] ;
322 -> 328 ;
329 [label="gini = 0.0\nsamples = 0.1%\nvalue = [1.0, 0.0]\nclass = E", fillcolor="#e58139"] ;
321 -> 329 ;
330 [label="gini = 0.0\nsamples = 0.2%\nvalue = [1.0, 0.0]\nclass = E", fillcolor="#e58139"] ;
312 -> 330 ;
331 [label="NumOfProducts <= 2.5\ngini = 0.39\nsamples = 0.2%\nvalue = [0.73, 0.27]\nclass = E", fillcolor="#eeaf81"] ;
311 -> 331 ;
332 [label="gini = 0.0\nsamples = 0.2%\nvalue = [1.0, 0.0]\nclass = E", fillcolor="#e58139"] ;
331 -> 332 ;
333 [label="gini = 0.0\nsamples = 0.0%\nvalue = [0.0, 1.0]\nclass = x", fillcolor="#399de5"] ;
331 -> 333 ;
334 [label="Age <= 38.5\ngini = 0.24\nsamples = 1.0%\nvalue = [0.86, 0.14]\nclass = E", fillcolor="#e99659"] ;
288 -> 334 ;
335 [label="NumOfProducts <= 1.5\ngini = 0.04\nsamples = 0.7%\nvalue = [0.98, 0.02]\nclass = E", fillcolor="#e6843d"] ;
334 -> 335 ;
336 [label="IsActiveMember <= 0.5\ngini = 0.13\nsamples = 0.1%\nvalue = [0.93, 0.07]\nclass = E", fillcolor="#e78b48"] ;
335 -> 336 ;
337 [label="gini = 0.0\nsamples = 0.1%\nvalue = [1.0, 0.0]\nclass = E", fillcolor="#e58139"] ;
336 -> 337 ;
338 [label="EstimatedSalary <= 193732.66\ngini = 0.38\nsamples = 0.1%\nvalue = [0.75, 0.25]\nclass = E", fillcolor="#eeab7b"] ;
336 -> 338 ;
339 [label="gini = 0.0\nsamples = 0.0%\nvalue = [1.0, 0.0]\nclass = E", fillcolor="#e58139"] ;
338 -> 339 ;
340 [label="gini = 0.0\nsamples = 0.0%\nvalue = [0.0, 1.0]\nclass = x", fillcolor="#399de5"] ;
338 -> 340 ;
341 [label="gini = 0.0\nsamples = 0.5%\nvalue = [1.0, 0.0]\nclass = E", fillcolor="#e58139"] ;
335 -> 341 ;
342 [label="CreditScore <= 548.0\ngini = 0.49\nsamples = 0.4%\nvalue = [0.57, 0.43]\nclass = E", fillcolor="#f8e0ce"] ;
334 -> 342 ;
343 [label="gini = 0.0\nsamples = 0.1%\nvalue = [0.0, 1.0]\nclass = x", fillcolor="#399de5"] ;
342 -> 343 ;
344 [label="Age <= 65.5\ngini = 0.42\nsamples = 0.3%\nvalue = [0.71, 0.29]\nclass = E", fillcolor="#f0b58b"] ;
342 -> 344 ;
345 [label="EstimatedSalary <= 196998.3\ngini = 0.46\nsamples = 0.3%\nvalue = [0.64, 0.36]\nclass = E", fillcolor="#f3c7a7"] ;
344 -> 345 ;
346 [label="Spain <= 0.5\ngini = 0.5\nsamples = 0.2%\nvalue = [0.55, 0.45]\nclass = E", fillcolor="#fbeade"] ;
345 -> 346 ;
347 [label="NumOfProducts <= 1.5\ngini = 0.41\nsamples = 0.1%\nvalue = [0.71, 0.29]\nclass = E", fillcolor="#efb388"] ;
346 -> 347 ;
348 [label="gini = 0.0\nsamples = 0.0%\nvalue = [0.0, 1.0]\nclass = x", fillcolor="#399de5"] ;
347 -> 348 ;
349 [label="gini = 0.0\nsamples = 0.1%\nvalue = [1.0, 0.0]\nclass = E", fillcolor="#e58139"] ;
347 -> 349 ;
350 [label="Tenure <= 4.5\ngini = 0.38\nsamples = 0.1%\nvalue = [0.25, 0.75]\nclass = x", fillcolor="#7bbeee"] ;
346 -> 350 ;
351 [label="EstimatedSalary <= 193842.62\ngini = 0.5\nsamples = 0.0%\nvalue = [0.5, 0.5]\nclass = E", fillcolor="#ffffff"] ;
350 -> 351 ;
352 [label="gini = 0.0\nsamples = 0.0%\nvalue = [1.0, 0.0]\nclass = E", fillcolor="#e58139"] ;
351 -> 352 ;
353 [label="gini = 0.0\nsamples = 0.0%\nvalue = [0.0, 1.0]\nclass = x", fillcolor="#399de5"] ;
351 -> 353 ;
354 [label="gini = 0.0\nsamples = 0.0%\nvalue = [0.0, 1.0]\nclass = x", fillcolor="#399de5"] ;
350 -> 354 ;
355 [label="gini = 0.0\nsamples = 0.1%\nvalue = [1.0, 0.0]\nclass = E", fillcolor="#e58139"] ;
345 -> 355 ;
356 [label="gini = 0.0\nsamples = 0.0%\nvalue = [1.0, 0.0]\nclass = E", fillcolor="#e58139"] ;
344 -> 356 ;
357 [label="EstimatedSalary <= 51806.37\ngini = 0.2\nsamples = 20.3%\nvalue = [0.89, 0.11]\nclass = E", fillcolor="#e89152"] ;
1 -> 357 ;
358 [label="Tenure <= 1.5\ngini = 0.12\nsamples = 5.5%\nvalue = [0.94, 0.06]\nclass = E", fillcolor="#e78946"] ;
357 -> 358 ;
359 [label="CreditScore <= 536.5\ngini = 0.27\nsamples = 0.8%\nvalue = [0.84, 0.16]\nclass = E", fillcolor="#ea9a60"] ;
358 -> 359 ;
360 [label="gini = 0.0\nsamples = 0.0%\nvalue = [0.0, 1.0]\nclass = x", fillcolor="#399de5"] ;
359 -> 360 ;
361 [label="Age <= 42.5\ngini = 0.18\nsamples = 0.7%\nvalue = [0.9, 0.1]\nclass = E", fillcolor="#e88f4f"] ;
359 -> 361 ;
362 [label="gini = 0.0\nsamples = 0.5%\nvalue = [1.0, 0.0]\nclass = E", fillcolor="#e58139"] ;
361 -> 362 ;
363 [label="EstimatedSalary <= 7232.94\ngini = 0.36\nsamples = 0.2%\nvalue = [0.76, 0.24]\nclass = E", fillcolor="#eda877"] ;
361 -> 363 ;
364 [label="gini = 0.0\nsamples = 0.0%\nvalue = [0.0, 1.0]\nclass = x", fillcolor="#399de5"] ;
363 -> 364 ;
365 [label="CreditScore <= 624.0\ngini = 0.11\nsamples = 0.2%\nvalue = [0.94, 0.06]\nclass = E", fillcolor="#e78945"] ;
363 -> 365 ;
366 [label="Spain <= 0.5\ngini = 0.38\nsamples = 0.1%\nvalue = [0.75, 0.25]\nclass = E", fillcolor="#eeab7b"] ;
365 -> 366 ;
367 [label="gini = 0.0\nsamples = 0.0%\nvalue = [1.0, 0.0]\nclass = E", fillcolor="#e58139"] ;
366 -> 367 ;
368 [label="EstimatedSalary <= 15677.92\ngini = 0.5\nsamples = 0.0%\nvalue = [0.5, 0.5]\nclass = E", fillcolor="#ffffff"] ;
366 -> 368 ;
369 [label="gini = 0.0\nsamples = 0.0%\nvalue = [1.0, 0.0]\nclass = E", fillcolor="#e58139"] ;
368 -> 369 ;
370 [label="gini = 0.0\nsamples = 0.0%\nvalue = [0.0, 1.0]\nclass = x", fillcolor="#399de5"] ;
368 -> 370 ;
371 [label="gini = 0.0\nsamples = 0.1%\nvalue = [1.0, 0.0]\nclass = E", fillcolor="#e58139"] ;
365 -> 371 ;
372 [label="IsActiveMember <= 0.5\ngini = 0.09\nsamples = 4.7%\nvalue = [0.95, 0.05]\nclass = E", fillcolor="#e68742"] ;
358 -> 372 ;
373 [label="CreditScore <= 846.0\ngini = 0.12\nsamples = 2.2%\nvalue = [0.93, 0.07]\nclass = E", fillcolor="#e78a47"] ;
372 -> 373 ;
374 [label="Tenure <= 6.5\ngini = 0.1\nsamples = 2.1%\nvalue = [0.94, 0.06]\nclass = E", fillcolor="#e78845"] ;
373 -> 374 ;
375 [label="HasCrCard <= 0.5\ngini = 0.17\nsamples = 1.2%\nvalue = [0.9, 0.1]\nclass = E", fillcolor="#e88e4e"] ;
374 -> 375 ;
376 [label="Tenure <= 3.5\ngini = 0.23\nsamples = 0.2%\nvalue = [0.87, 0.13]\nclass = E", fillcolor="#e99457"] ;
375 -> 376 ;
377 [label="gini = 0.0\nsamples = 0.1%\nvalue = [1.0, 0.0]\nclass = E", fillcolor="#e58139"] ;
376 -> 377 ;
378 [label="EstimatedSalary <= 38973.14\ngini = 0.35\nsamples = 0.1%\nvalue = [0.78, 0.22]\nclass = E", fillcolor="#eca572"] ;
376 -> 378 ;
379 [label="CreditScore <= 593.0\ngini = 0.5\nsamples = 0.1%\nvalue = [0.5, 0.5]\nclass = E", fillcolor="#ffffff"] ;
378 -> 379 ;
380 [label="gini = 0.0\nsamples = 0.0%\nvalue = [1.0, 0.0]\nclass = E", fillcolor="#e58139"] ;
379 -> 380 ;
381 [label="gini = 0.0\nsamples = 0.0%\nvalue = [0.0, 1.0]\nclass = x", fillcolor="#399de5"] ;
379 -> 381 ;
382 [label="gini = 0.0\nsamples = 0.0%\nvalue = [1.0, 0.0]\nclass = E", fillcolor="#e58139"] ;
378 -> 382 ;
383 [label="Age <= 46.5\ngini = 0.16\nsamples = 1.0%\nvalue = [0.91, 0.09]\nclass = E", fillcolor="#e88d4d"] ;
375 -> 383 ;
384 [label="EstimatedSalary <= 5890.71\ngini = 0.03\nsamples = 0.9%\nvalue = [0.99, 0.01]\nclass = E", fillcolor="#e5833c"] ;
383 -> 384 ;
385 [label="Spain <= 0.5\ngini = 0.18\nsamples = 0.1%\nvalue = [0.9, 0.1]\nclass = E", fillcolor="#e88f4f"] ;
384 -> 385 ;
386 [label="gini = 0.0\nsamples = 0.1%\nvalue = [1.0, 0.0]\nclass = E", fillcolor="#e58139"] ;
385 -> 386 ;
387 [label="gini = 0.0\nsamples = 0.0%\nvalue = [0.0, 1.0]\nclass = x", fillcolor="#399de5"] ;
385 -> 387 ;
388 [label="gini = 0.0\nsamples = 0.8%\nvalue = [1.0, 0.0]\nclass = E", fillcolor="#e58139"] ;
384 -> 388 ;
389 [label="Age <= 51.0\ngini = 0.24\nsamples = 0.1%\nvalue = [0.14, 0.86]\nclass = x", fillcolor="#5aade9"] ;
383 -> 389 ;
390 [label="Spain <= 0.5\ngini = 0.5\nsamples = 0.0%\nvalue = [0.5, 0.5]\nclass = E", fillcolor="#ffffff"] ;
389 -> 390 ;
391 [label="gini = 0.0\nsamples = 0.0%\nvalue = [1.0, 0.0]\nclass = E", fillcolor="#e58139"] ;
390 -> 391 ;
392 [label="gini = 0.0\nsamples = 0.0%\nvalue = [0.0, 1.0]\nclass = x", fillcolor="#399de5"] ;
390 -> 392 ;
393 [label="gini = 0.0\nsamples = 0.1%\nvalue = [0.0, 1.0]\nclass = x", fillcolor="#399de5"] ;
389 -> 393 ;
394 [label="gini = 0.0\nsamples = 0.9%\nvalue = [1.0, 0.0]\nclass = E", fillcolor="#e58139"] ;
374 -> 394 ;
395 [label="gini = 0.0\nsamples = 0.0%\nvalue = [0.0, 1.0]\nclass = x", fillcolor="#399de5"] ;
373 -> 395 ;
396 [label="Tenure <= 7.5\ngini = 0.05\nsamples = 2.5%\nvalue = [0.97, 0.03]\nclass = E", fillcolor="#e6843e"] ;
372 -> 396 ;
397 [label="NumOfProducts <= 1.5\ngini = 0.02\nsamples = 1.6%\nvalue = [0.99, 0.01]\nclass = E", fillcolor="#e5823b"] ;
396 -> 397 ;
398 [label="Tenure <= 5.0\ngini = 0.06\nsamples = 0.4%\nvalue = [0.97, 0.03]\nclass = E", fillcolor="#e6853f"] ;
397 -> 398 ;
399 [label="gini = 0.0\nsamples = 0.2%\nvalue = [1.0, 0.0]\nclass = E", fillcolor="#e58139"] ;
398 -> 399 ;
400 [label="Age <= 38.5\ngini = 0.11\nsamples = 0.2%\nvalue = [0.94, 0.06]\nclass = E", fillcolor="#e78945"] ;
398 -> 400 ;
401 [label="gini = 0.0\nsamples = 0.1%\nvalue = [1.0, 0.0]\nclass = E", fillcolor="#e58139"] ;
400 -> 401 ;
402 [label="EstimatedSalary <= 21537.62\ngini = 0.24\nsamples = 0.1%\nvalue = [0.86, 0.14]\nclass = E", fillcolor="#e9965a"] ;
400 -> 402 ;
403 [label="gini = 0.0\nsamples = 0.0%\nvalue = [0.0, 1.0]\nclass = x", fillcolor="#399de5"] ;
402 -> 403 ;
404 [label="gini = 0.0\nsamples = 0.1%\nvalue = [1.0, 0.0]\nclass = E", fillcolor="#e58139"] ;
402 -> 404 ;
405 [label="gini = 0.0\nsamples = 1.2%\nvalue = [1.0, 0.0]\nclass = E", fillcolor="#e58139"] ;
397 -> 405 ;
406 [label="Tenure <= 9.5\ngini = 0.11\nsamples = 0.9%\nvalue = [0.94, 0.06]\nclass = E", fillcolor="#e78946"] ;
396 -> 406 ;
407 [label="EstimatedSalary <= 12832.39\ngini = 0.12\nsamples = 0.8%\nvalue = [0.93, 0.07]\nclass = E", fillcolor="#e78a47"] ;
406 -> 407 ;
408 [label="gini = 0.0\nsamples = 0.2%\nvalue = [1.0, 0.0]\nclass = E", fillcolor="#e58139"] ;
407 -> 408 ;
409 [label="Spain <= 0.5\ngini = 0.17\nsamples = 0.6%\nvalue = [0.9, 0.1]\nclass = E", fillcolor="#e88e4e"] ;
407 -> 409 ;
410 [label="NumOfProducts <= 3.0\ngini = 0.27\nsamples = 0.4%\nvalue = [0.84, 0.16]\nclass = E", fillcolor="#ea995f"] ;
409 -> 410 ;
411 [label="NumOfProducts <= 1.5\ngini = 0.16\nsamples = 0.4%\nvalue = [0.91, 0.09]\nclass = E", fillcolor="#e78d4c"] ;
410 -> 411 ;
412 [label="CreditScore <= 577.0\ngini = 0.32\nsamples = 0.1%\nvalue = [0.8, 0.2]\nclass = E", fillcolor="#eca06a"] ;
411 -> 412 ;
413 [label="gini = 0.0\nsamples = 0.0%\nvalue = [1.0, 0.0]\nclass = E", fillcolor="#e58139"] ;
412 -> 413 ;
414 [label="Age <= 44.5\ngini = 0.44\nsamples = 0.1%\nvalue = [0.67, 0.33]\nclass = E", fillcolor="#f2c09c"] ;
412 -> 414 ;
415 [label="gini = 0.0\nsamples = 0.0%\nvalue = [1.0, 0.0]\nclass = E", fillcolor="#e58139"] ;
414 -> 415 ;
416 [label="gini = 0.0\nsamples = 0.0%\nvalue = [0.0, 1.0]\nclass = x", fillcolor="#399de5"] ;
414 -> 416 ;
417 [label="Age <= 45.5\ngini = 0.1\nsamples = 0.3%\nvalue = [0.94, 0.06]\nclass = E", fillcolor="#e78845"] ;
411 -> 417 ;
418 [label="gini = 0.0\nsamples = 0.2%\nvalue = [1.0, 0.0]\nclass = E", fillcolor="#e58139"] ;
417 -> 418 ;
419 [label="HasCrCard <= 0.5\ngini = 0.5\nsamples = 0.0%\nvalue = [0.5, 0.5]\nclass = E", fillcolor="#ffffff"] ;
417 -> 419 ;
420 [label="gini = 0.0\nsamples = 0.0%\nvalue = [0.0, 1.0]\nclass = x", fillcolor="#399de5"] ;
419 -> 420 ;
421 [label="gini = 0.0\nsamples = 0.0%\nvalue = [1.0, 0.0]\nclass = E", fillcolor="#e58139"] ;
419 -> 421 ;
422 [label="gini = 0.0\nsamples = 0.0%\nvalue = [0.0, 1.0]\nclass = x", fillcolor="#399de5"] ;
410 -> 422 ;
423 [label="gini = 0.0\nsamples = 0.2%\nvalue = [1.0, 0.0]\nclass = E", fillcolor="#e58139"] ;
409 -> 423 ;
424 [label="gini = 0.0\nsamples = 0.1%\nvalue = [1.0, 0.0]\nclass = E", fillcolor="#e58139"] ;
406 -> 424 ;
425 [label="HasCrCard <= 0.5\ngini = 0.23\nsamples = 14.9%\nvalue = [0.87, 0.13]\nclass = E", fillcolor="#e99457"] ;
357 -> 425 ;
426 [label="CreditScore <= 439.0\ngini = 0.22\nsamples = 4.1%\nvalue = [0.88, 0.12]\nclass = E", fillcolor="#e99355"] ;
425 -> 426 ;
427 [label="Tenure <= 7.0\ngini = 0.38\nsamples = 0.1%\nvalue = [0.25, 0.75]\nclass = x", fillcolor="#7bbeee"] ;
426 -> 427 ;
428 [label="gini = 0.0\nsamples = 0.0%\nvalue = [0.0, 1.0]\nclass = x", fillcolor="#399de5"] ;
427 -> 428 ;
429 [label="Spain <= 0.5\ngini = 0.5\nsamples = 0.0%\nvalue = [0.5, 0.5]\nclass = E", fillcolor="#ffffff"] ;
427 -> 429 ;
430 [label="gini = 0.0\nsamples = 0.0%\nvalue = [0.0, 1.0]\nclass = x", fillcolor="#399de5"] ;
429 -> 430 ;
431 [label="gini = 0.0\nsamples = 0.0%\nvalue = [1.0, 0.0]\nclass = E", fillcolor="#e58139"] ;
429 -> 431 ;
432 [label="NumOfProducts <= 1.5\ngini = 0.2\nsamples = 4.1%\nvalue = [0.88, 0.12]\nclass = E", fillcolor="#e89153"] ;
426 -> 432 ;
433 [label="IsActiveMember <= 0.5\ngini = 0.42\nsamples = 1.1%\nvalue = [0.7, 0.3]\nclass = E", fillcolor="#f0b890"] ;
432 -> 433 ;
434 [label="Tenure <= 1.5\ngini = 0.38\nsamples = 0.5%\nvalue = [0.75, 0.25]\nclass = E", fillcolor="#eeab7b"] ;
433 -> 434 ;
435 [label="EstimatedSalary <= 73003.76\ngini = 0.5\nsamples = 0.1%\nvalue = [0.5, 0.5]\nclass = E", fillcolor="#ffffff"] ;
434 -> 435 ;
436 [label="gini = 0.0\nsamples = 0.0%\nvalue = [0.0, 1.0]\nclass = x", fillcolor="#399de5"] ;
435 -> 436 ;
437 [label="gini = 0.0\nsamples = 0.0%\nvalue = [1.0, 0.0]\nclass = E", fillcolor="#e58139"] ;
435 -> 437 ;
438 [label="Spain <= 0.5\ngini = 0.34\nsamples = 0.4%\nvalue = [0.78, 0.22]\nclass = E", fillcolor="#eca470"] ;
434 -> 438 ;
439 [label="Age <= 40.0\ngini = 0.35\nsamples = 0.3%\nvalue = [0.77, 0.23]\nclass = E", fillcolor="#eda673"] ;
438 -> 439 ;
440 [label="gini = 0.0\nsamples = 0.1%\nvalue = [1.0, 0.0]\nclass = E", fillcolor="#e58139"] ;
439 -> 440 ;
441 [label="CreditScore <= 684.0\ngini = 0.5\nsamples = 0.2%\nvalue = [0.55, 0.45]\nclass = E", fillcolor="#fbeade"] ;
439 -> 441 ;
442 [label="CreditScore <= 566.0\ngini = 0.24\nsamples = 0.1%\nvalue = [0.86, 0.14]\nclass = E", fillcolor="#e9965a"] ;
441 -> 442 ;
443 [label="gini = 0.0\nsamples = 0.0%\nvalue = [0.0, 1.0]\nclass = x", fillcolor="#399de5"] ;
442 -> 443 ;
444 [label="gini = 0.0\nsamples = 0.1%\nvalue = [1.0, 0.0]\nclass = E", fillcolor="#e58139"] ;
442 -> 444 ;
445 [label="gini = 0.0\nsamples = 0.0%\nvalue = [0.0, 1.0]\nclass = x", fillcolor="#399de5"] ;
441 -> 445 ;
446 [label="CreditScore <= 699.0\ngini = 0.32\nsamples = 0.1%\nvalue = [0.8, 0.2]\nclass = E", fillcolor="#eca06a"] ;
438 -> 446 ;
447 [label="gini = 0.0\nsamples = 0.1%\nvalue = [1.0, 0.0]\nclass = E", fillcolor="#e58139"] ;
446 -> 447 ;
448 [label="gini = 0.0\nsamples = 0.0%\nvalue = [0.0, 1.0]\nclass = x", fillcolor="#399de5"] ;
446 -> 448 ;
449 [label="Tenure <= 2.5\ngini = 0.45\nsamples = 0.6%\nvalue = [0.65, 0.35]\nclass = E", fillcolor="#f3c4a3"] ;
433 -> 449 ;
450 [label="gini = 0.0\nsamples = 0.1%\nvalue = [1.0, 0.0]\nclass = E", fillcolor="#e58139"] ;
449 -> 450 ;
451 [label="Age <= 41.5\ngini = 0.49\nsamples = 0.5%\nvalue = [0.58, 0.42]\nclass = E", fillcolor="#f8ddc9"] ;
449 -> 451 ;
452 [label="Tenure <= 3.5\ngini = 0.28\nsamples = 0.3%\nvalue = [0.83, 0.17]\nclass = E", fillcolor="#ea9a61"] ;
451 -> 452 ;
453 [label="gini = 0.0\nsamples = 0.0%\nvalue = [0.0, 1.0]\nclass = x", fillcolor="#399de5"] ;
452 -> 453 ;
454 [label="CreditScore <= 690.5\ngini = 0.09\nsamples = 0.2%\nvalue = [0.95, 0.05]\nclass = E", fillcolor="#e68743"] ;
452 -> 454 ;
455 [label="gini = 0.0\nsamples = 0.2%\nvalue = [1.0, 0.0]\nclass = E", fillcolor="#e58139"] ;
454 -> 455 ;
456 [label="Tenure <= 8.0\ngini = 0.28\nsamples = 0.1%\nvalue = [0.83, 0.17]\nclass = E", fillcolor="#ea9a61"] ;
454 -> 456 ;
457 [label="Age <= 40.5\ngini = 0.44\nsamples = 0.0%\nvalue = [0.67, 0.33]\nclass = E", fillcolor="#f2c09c"] ;
456 -> 457 ;
458 [label="gini = 0.0\nsamples = 0.0%\nvalue = [0.0, 1.0]\nclass = x", fillcolor="#399de5"] ;
457 -> 458 ;
459 [label="gini = 0.0\nsamples = 0.0%\nvalue = [1.0, 0.0]\nclass = E", fillcolor="#e58139"] ;
457 -> 459 ;
460 [label="gini = 0.0\nsamples = 0.0%\nvalue = [1.0, 0.0]\nclass = E", fillcolor="#e58139"] ;
456 -> 460 ;
461 [label="Spain <= 0.5\ngini = 0.24\nsamples = 0.2%\nvalue = [0.14, 0.86]\nclass = x", fillcolor="#5aade9"] ;
451 -> 461 ;
462 [label="EstimatedSalary <= 113089.75\ngini = 0.2\nsamples = 0.1%\nvalue = [0.11, 0.89]\nclass = x", fillcolor="#52a9e8"] ;
461 -> 462 ;
463 [label="gini = 0.0\nsamples = 0.1%\nvalue = [0.0, 1.0]\nclass = x", fillcolor="#399de5"] ;
462 -> 463 ;
464 [label="EstimatedSalary <= 156380.43\ngini = 0.5\nsamples = 0.0%\nvalue = [0.5, 0.5]\nclass = E", fillcolor="#ffffff"] ;
462 -> 464 ;
465 [label="gini = 0.0\nsamples = 0.0%\nvalue = [1.0, 0.0]\nclass = E", fillcolor="#e58139"] ;
464 -> 465 ;
466 [label="gini = 0.0\nsamples = 0.0%\nvalue = [0.0, 1.0]\nclass = x", fillcolor="#399de5"] ;
464 -> 466 ;
467 [label="CreditScore <= 627.5\ngini = 0.32\nsamples = 0.1%\nvalue = [0.2, 0.8]\nclass = x", fillcolor="#6ab6ec"] ;
461 -> 467 ;
468 [label="gini = 0.0\nsamples = 0.0%\nvalue = [0.0, 1.0]\nclass = x", fillcolor="#399de5"] ;
467 -> 468 ;
469 [label="CreditScore <= 644.5\ngini = 0.44\nsamples = 0.0%\nvalue = [0.33, 0.67]\nclass = x", fillcolor="#9ccef2"] ;
467 -> 469 ;
470 [label="gini = 0.0\nsamples = 0.0%\nvalue = [1.0, 0.0]\nclass = E", fillcolor="#e58139"] ;
469 -> 470 ;
471 [label="gini = 0.0\nsamples = 0.0%\nvalue = [0.0, 1.0]\nclass = x", fillcolor="#399de5"] ;
469 -> 471 ;
472 [label="Spain <= 0.5\ngini = 0.07\nsamples = 3.0%\nvalue = [0.96, 0.04]\nclass = E", fillcolor="#e68640"] ;
432 -> 472 ;
473 [label="NumOfProducts <= 2.5\ngini = 0.1\nsamples = 1.9%\nvalue = [0.95, 0.05]\nclass = E", fillcolor="#e68844"] ;
472 -> 473 ;
474 [label="EstimatedSalary <= 190434.02\ngini = 0.05\nsamples = 1.8%\nvalue = [0.97, 0.03]\nclass = E", fillcolor="#e6843e"] ;
473 -> 474 ;
475 [label="Age <= 42.0\ngini = 0.04\nsamples = 1.7%\nvalue = [0.98, 0.02]\nclass = E", fillcolor="#e5833d"] ;
474 -> 475 ;
476 [label="gini = 0.0\nsamples = 1.2%\nvalue = [1.0, 0.0]\nclass = E", fillcolor="#e58139"] ;
475 -> 476 ;
477 [label="Tenure <= 4.5\ngini = 0.13\nsamples = 0.5%\nvalue = [0.93, 0.07]\nclass = E", fillcolor="#e78a48"] ;
475 -> 477 ;
478 [label="gini = 0.0\nsamples = 0.2%\nvalue = [1.0, 0.0]\nclass = E", fillcolor="#e58139"] ;
477 -> 478 ;
479 [label="Tenure <= 5.5\ngini = 0.23\nsamples = 0.2%\nvalue = [0.87, 0.13]\nclass = E", fillcolor="#e99457"] ;
477 -> 479 ;
480 [label="gini = 0.0\nsamples = 0.0%\nvalue = [0.0, 1.0]\nclass = x", fillcolor="#399de5"] ;
479 -> 480 ;
481 [label="gini = 0.0\nsamples = 0.2%\nvalue = [1.0, 0.0]\nclass = E", fillcolor="#e58139"] ;
479 -> 481 ;
482 [label="CreditScore <= 596.5\ngini = 0.32\nsamples = 0.1%\nvalue = [0.8, 0.2]\nclass = E", fillcolor="#eca06a"] ;
474 -> 482 ;
483 [label="CreditScore <= 510.5\ngini = 0.5\nsamples = 0.0%\nvalue = [0.5, 0.5]\nclass = E", fillcolor="#ffffff"] ;
482 -> 483 ;
484 [label="gini = 0.0\nsamples = 0.0%\nvalue = [1.0, 0.0]\nclass = E", fillcolor="#e58139"] ;
483 -> 484 ;
485 [label="gini = 0.0\nsamples = 0.0%\nvalue = [0.0, 1.0]\nclass = x", fillcolor="#399de5"] ;
483 -> 485 ;
486 [label="gini = 0.0\nsamples = 0.1%\nvalue = [1.0, 0.0]\nclass = E", fillcolor="#e58139"] ;
482 -> 486 ;
487 [label="Tenure <= 3.5\ngini = 0.48\nsamples = 0.1%\nvalue = [0.4, 0.6]\nclass = x", fillcolor="#bddef6"] ;
473 -> 487 ;
488 [label="gini = 0.0\nsamples = 0.0%\nvalue = [0.0, 1.0]\nclass = x", fillcolor="#399de5"] ;
487 -> 488 ;
489 [label="EstimatedSalary <= 103687.51\ngini = 0.44\nsamples = 0.0%\nvalue = [0.67, 0.33]\nclass = E", fillcolor="#f2c09c"] ;
487 -> 489 ;
490 [label="gini = 0.0\nsamples = 0.0%\nvalue = [0.0, 1.0]\nclass = x", fillcolor="#399de5"] ;
489 -> 490 ;
491 [label="gini = 0.0\nsamples = 0.0%\nvalue = [1.0, 0.0]\nclass = E", fillcolor="#e58139"] ;
489 -> 491 ;
492 [label="Age <= 35.5\ngini = 0.03\nsamples = 1.1%\nvalue = [0.99, 0.01]\nclass = E", fillcolor="#e5833c"] ;
472 -> 492 ;
493 [label="IsActiveMember <= 0.5\ngini = 0.08\nsamples = 0.4%\nvalue = [0.96, 0.04]\nclass = E", fillcolor="#e68642"] ;
492 -> 493 ;
494 [label="gini = 0.0\nsamples = 0.2%\nvalue = [1.0, 0.0]\nclass = E", fillcolor="#e58139"] ;
493 -> 494 ;
495 [label="NumOfProducts <= 2.5\ngini = 0.13\nsamples = 0.2%\nvalue = [0.93, 0.07]\nclass = E", fillcolor="#e78b48"] ;
493 -> 495 ;
496 [label="gini = 0.0\nsamples = 0.2%\nvalue = [1.0, 0.0]\nclass = E", fillcolor="#e58139"] ;
495 -> 496 ;
497 [label="EstimatedSalary <= 78546.82\ngini = 0.5\nsamples = 0.0%\nvalue = [0.5, 0.5]\nclass = E", fillcolor="#ffffff"] ;
495 -> 497 ;
498 [label="gini = 0.0\nsamples = 0.0%\nvalue = [0.0, 1.0]\nclass = x", fillcolor="#399de5"] ;
497 -> 498 ;
499 [label="gini = 0.0\nsamples = 0.0%\nvalue = [1.0, 0.0]\nclass = E", fillcolor="#e58139"] ;
497 -> 499 ;
500 [label="gini = 0.0\nsamples = 0.7%\nvalue = [1.0, 0.0]\nclass = E", fillcolor="#e58139"] ;
492 -> 500 ;
501 [label="Age <= 44.5\ngini = 0.23\nsamples = 10.7%\nvalue = [0.87, 0.13]\nclass = E", fillcolor="#e99558"] ;
425 -> 501 ;
502 [label="CreditScore <= 409.0\ngini = 0.15\nsamples = 8.5%\nvalue = [0.92, 0.08]\nclass = E", fillcolor="#e78c4b"] ;
501 -> 502 ;
503 [label="gini = 0.0\nsamples = 0.1%\nvalue = [0.0, 1.0]\nclass = x", fillcolor="#399de5"] ;
502 -> 503 ;
504 [label="CreditScore <= 590.5\ngini = 0.14\nsamples = 8.4%\nvalue = [0.92, 0.08]\nclass = E", fillcolor="#e78c4a"] ;
502 -> 504 ;
505 [label="NumOfProducts <= 1.5\ngini = 0.22\nsamples = 2.5%\nvalue = [0.87, 0.13]\nclass = E", fillcolor="#e99356"] ;
504 -> 505 ;
506 [label="Tenure <= 8.5\ngini = 0.43\nsamples = 0.8%\nvalue = [0.69, 0.31]\nclass = E", fillcolor="#f0b990"] ;
505 -> 506 ;
507 [label="EstimatedSalary <= 56259.72\ngini = 0.38\nsamples = 0.7%\nvalue = [0.75, 0.25]\nclass = E", fillcolor="#eeac7d"] ;
506 -> 507 ;
508 [label="CreditScore <= 578.5\ngini = 0.2\nsamples = 0.1%\nvalue = [0.11, 0.89]\nclass = x", fillcolor="#52a9e8"] ;
507 -> 508 ;
509 [label="gini = 0.0\nsamples = 0.1%\nvalue = [0.0, 1.0]\nclass = x", fillcolor="#399de5"] ;
508 -> 509 ;
510 [label="gini = 0.0\nsamples = 0.0%\nvalue = [1.0, 0.0]\nclass = E", fillcolor="#e58139"] ;
508 -> 510 ;
511 [label="IsActiveMember <= 0.5\ngini = 0.23\nsamples = 0.6%\nvalue = [0.87, 0.13]\nclass = E", fillcolor="#e99457"] ;
507 -> 511 ;
512 [label="CreditScore <= 578.0\ngini = 0.26\nsamples = 0.3%\nvalue = [0.85, 0.15]\nclass = E", fillcolor="#ea985d"] ;
511 -> 512 ;
513 [label="Spain <= 0.5\ngini = 0.15\nsamples = 0.3%\nvalue = [0.92, 0.08]\nclass = E", fillcolor="#e78c4b"] ;
512 -> 513 ;
514 [label="Age <= 38.0\ngini = 0.23\nsamples = 0.2%\nvalue = [0.87, 0.13]\nclass = E", fillcolor="#e99457"] ;
513 -> 514 ;
515 [label="Age <= 34.5\ngini = 0.13\nsamples = 0.2%\nvalue = [0.93, 0.07]\nclass = E", fillcolor="#e78b48"] ;
514 -> 515 ;
516 [label="gini = 0.0\nsamples = 0.1%\nvalue = [1.0, 0.0]\nclass = E", fillcolor="#e58139"] ;
515 -> 516 ;
517 [label="Tenure <= 6.0\ngini = 0.38\nsamples = 0.1%\nvalue = [0.75, 0.25]\nclass = E", fillcolor="#eeab7b"] ;
515 -> 517 ;
518 [label="gini = 0.0\nsamples = 0.0%\nvalue = [1.0, 0.0]\nclass = E", fillcolor="#e58139"] ;
517 -> 518 ;
519 [label="gini = 0.0\nsamples = 0.0%\nvalue = [0.0, 1.0]\nclass = x", fillcolor="#399de5"] ;
517 -> 519 ;
520 [label="gini = 0.0\nsamples = 0.0%\nvalue = [0.0, 1.0]\nclass = x", fillcolor="#399de5"] ;
514 -> 520 ;
521 [label="gini = 0.0\nsamples = 0.1%\nvalue = [1.0, 0.0]\nclass = E", fillcolor="#e58139"] ;
513 -> 521 ;
522 [label="gini = 0.0\nsamples = 0.0%\nvalue = [0.0, 1.0]\nclass = x", fillcolor="#399de5"] ;
512 -> 522 ;
523 [label="CreditScore <= 541.0\ngini = 0.18\nsamples = 0.2%\nvalue = [0.9, 0.1]\nclass = E", fillcolor="#e88f4f"] ;
511 -> 523 ;
524 [label="EstimatedSalary <= 123030.08\ngini = 0.41\nsamples = 0.1%\nvalue = [0.71, 0.29]\nclass = E", fillcolor="#efb388"] ;
523 -> 524 ;
525 [label="gini = 0.0\nsamples = 0.0%\nvalue = [1.0, 0.0]\nclass = E", fillcolor="#e58139"] ;
524 -> 525 ;
526 [label="CreditScore <= 536.5\ngini = 0.5\nsamples = 0.1%\nvalue = [0.5, 0.5]\nclass = E", fillcolor="#ffffff"] ;
524 -> 526 ;
527 [label="gini = 0.0\nsamples = 0.0%\nvalue = [1.0, 0.0]\nclass = E", fillcolor="#e58139"] ;
526 -> 527 ;
528 [label="gini = 0.0\nsamples = 0.0%\nvalue = [0.0, 1.0]\nclass = x", fillcolor="#399de5"] ;
526 -> 528 ;
529 [label="gini = 0.0\nsamples = 0.2%\nvalue = [1.0, 0.0]\nclass = E", fillcolor="#e58139"] ;
523 -> 529 ;
530 [label="CreditScore <= 509.0\ngini = 0.41\nsamples = 0.1%\nvalue = [0.29, 0.71]\nclass = x", fillcolor="#88c4ef"] ;
506 -> 530 ;
531 [label="gini = 0.0\nsamples = 0.0%\nvalue = [1.0, 0.0]\nclass = E", fillcolor="#e58139"] ;
530 -> 531 ;
532 [label="EstimatedSalary <= 108379.27\ngini = 0.28\nsamples = 0.1%\nvalue = [0.17, 0.83]\nclass = x", fillcolor="#61b1ea"] ;
530 -> 532 ;
533 [label="EstimatedSalary <= 62992.81\ngini = 0.44\nsamples = 0.0%\nvalue = [0.33, 0.67]\nclass = x", fillcolor="#9ccef2"] ;
532 -> 533 ;
534 [label="gini = 0.0\nsamples = 0.0%\nvalue = [0.0, 1.0]\nclass = x", fillcolor="#399de5"] ;
533 -> 534 ;
535 [label="gini = 0.0\nsamples = 0.0%\nvalue = [1.0, 0.0]\nclass = E", fillcolor="#e58139"] ;
533 -> 535 ;
536 [label="gini = 0.0\nsamples = 0.0%\nvalue = [0.0, 1.0]\nclass = x", fillcolor="#399de5"] ;
532 -> 536 ;
537 [label="NumOfProducts <= 2.5\ngini = 0.08\nsamples = 1.7%\nvalue = [0.96, 0.04]\nclass = E", fillcolor="#e68641"] ;
505 -> 537 ;
538 [label="CreditScore <= 479.0\ngini = 0.05\nsamples = 1.7%\nvalue = [0.98, 0.02]\nclass = E", fillcolor="#e6843e"] ;
537 -> 538 ;
539 [label="Age <= 33.5\ngini = 0.29\nsamples = 0.2%\nvalue = [0.82, 0.18]\nclass = E", fillcolor="#eb9c63"] ;
538 -> 539 ;
540 [label="EstimatedSalary <= 179807.03\ngini = 0.38\nsamples = 0.0%\nvalue = [0.25, 0.75]\nclass = x", fillcolor="#7bbeee"] ;
539 -> 540 ;
541 [label="gini = 0.0\nsamples = 0.0%\nvalue = [1.0, 0.0]\nclass = E", fillcolor="#e58139"] ;
540 -> 541 ;
542 [label="gini = 0.0\nsamples = 0.0%\nvalue = [0.0, 1.0]\nclass = x", fillcolor="#399de5"] ;
540 -> 542 ;
543 [label="gini = 0.0\nsamples = 0.2%\nvalue = [1.0, 0.0]\nclass = E", fillcolor="#e58139"] ;
539 -> 543 ;
544 [label="gini = 0.0\nsamples = 1.4%\nvalue = [1.0, 0.0]\nclass = E", fillcolor="#e58139"] ;
538 -> 544 ;
545 [label="gini = 0.0\nsamples = 0.0%\nvalue = [0.0, 1.0]\nclass = x", fillcolor="#399de5"] ;
537 -> 545 ;
546 [label="CreditScore <= 782.5\ngini = 0.1\nsamples = 6.0%\nvalue = [0.95, 0.05]\nclass = E", fillcolor="#e68844"] ;
504 -> 546 ;
547 [label="NumOfProducts <= 1.5\ngini = 0.07\nsamples = 5.1%\nvalue = [0.96, 0.04]\nclass = E", fillcolor="#e68641"] ;
546 -> 547 ;
548 [label="Spain <= 0.5\ngini = 0.24\nsamples = 1.0%\nvalue = [0.86, 0.14]\nclass = E", fillcolor="#e99558"] ;
547 -> 548 ;
549 [label="IsActiveMember <= 0.5\ngini = 0.25\nsamples = 0.6%\nvalue = [0.85, 0.15]\nclass = E", fillcolor="#e9975b"] ;
548 -> 549 ;
550 [label="Age <= 39.5\ngini = 0.21\nsamples = 0.2%\nvalue = [0.88, 0.12]\nclass = E", fillcolor="#e89253"] ;
549 -> 550 ;
551 [label="gini = 0.0\nsamples = 0.2%\nvalue = [1.0, 0.0]\nclass = E", fillcolor="#e58139"] ;
550 -> 551 ;
552 [label="CreditScore <= 695.5\ngini = 0.44\nsamples = 0.1%\nvalue = [0.67, 0.33]\nclass = E", fillcolor="#f2c09c"] ;
550 -> 552 ;
553 [label="gini = 0.0\nsamples = 0.0%\nvalue = [1.0, 0.0]\nclass = E", fillcolor="#e58139"] ;
552 -> 553 ;
554 [label="gini = 0.0\nsamples = 0.0%\nvalue = [0.0, 1.0]\nclass = x", fillcolor="#399de5"] ;
552 -> 554 ;
555 [label="EstimatedSalary <= 61423.53\ngini = 0.28\nsamples = 0.4%\nvalue = [0.83, 0.17]\nclass = E", fillcolor="#ea9a61"] ;
549 -> 555 ;
556 [label="gini = 0.0\nsamples = 0.0%\nvalue = [0.0, 1.0]\nclass = x", fillcolor="#399de5"] ;
555 -> 556 ;
557 [label="Tenure <= 2.5\ngini = 0.09\nsamples = 0.3%\nvalue = [0.95, 0.05]\nclass = E", fillcolor="#e68743"] ;
555 -> 557 ;
558 [label="Age <= 38.5\ngini = 0.28\nsamples = 0.1%\nvalue = [0.83, 0.17]\nclass = E", fillcolor="#ea9a61"] ;
557 -> 558 ;
559 [label="gini = 0.0\nsamples = 0.1%\nvalue = [1.0, 0.0]\nclass = E", fillcolor="#e58139"] ;
558 -> 559 ;
560 [label="gini = 0.0\nsamples = 0.0%\nvalue = [0.0, 1.0]\nclass = x", fillcolor="#399de5"] ;
558 -> 560 ;
561 [label="gini = 0.0\nsamples = 0.2%\nvalue = [1.0, 0.0]\nclass = E", fillcolor="#e58139"] ;
557 -> 561 ;
562 [label="Age <= 34.5\ngini = 0.21\nsamples = 0.4%\nvalue = [0.88, 0.12]\nclass = E", fillcolor="#e99254"] ;
548 -> 562 ;
563 [label="gini = 0.0\nsamples = 0.2%\nvalue = [1.0, 0.0]\nclass = E", fillcolor="#e58139"] ;
562 -> 563 ;
564 [label="CreditScore <= 624.5\ngini = 0.36\nsamples = 0.2%\nvalue = [0.77, 0.23]\nclass = E", fillcolor="#eda774"] ;
562 -> 564 ;
565 [label="CreditScore <= 602.5\ngini = 0.44\nsamples = 0.0%\nvalue = [0.33, 0.67]\nclass = x", fillcolor="#9ccef2"] ;
564 -> 565 ;
566 [label="gini = 0.0\nsamples = 0.0%\nvalue = [1.0, 0.0]\nclass = E", fillcolor="#e58139"] ;
565 -> 566 ;
567 [label="gini = 0.0\nsamples = 0.0%\nvalue = [0.0, 1.0]\nclass = x", fillcolor="#399de5"] ;
565 -> 567 ;
568 [label="Age <= 42.5\ngini = 0.18\nsamples = 0.2%\nvalue = [0.9, 0.1]\nclass = E", fillcolor="#e88f4f"] ;
564 -> 568 ;
569 [label="gini = 0.0\nsamples = 0.1%\nvalue = [1.0, 0.0]\nclass = E", fillcolor="#e58139"] ;
568 -> 569 ;
570 [label="gini = 0.0\nsamples = 0.0%\nvalue = [0.0, 1.0]\nclass = x", fillcolor="#399de5"] ;
568 -> 570 ;
571 [label="NumOfProducts <= 2.5\ngini = 0.03\nsamples = 4.1%\nvalue = [0.99, 0.01]\nclass = E", fillcolor="#e5833c"] ;
547 -> 571 ;
572 [label="Age <= 36.5\ngini = 0.01\nsamples = 3.9%\nvalue = [0.99, 0.01]\nclass = E", fillcolor="#e5823b"] ;
571 -> 572 ;
573 [label="gini = 0.0\nsamples = 2.6%\nvalue = [1.0, 0.0]\nclass = E", fillcolor="#e58139"] ;
572 -> 573 ;
574 [label="Age <= 37.5\ngini = 0.04\nsamples = 1.3%\nvalue = [0.98, 0.02]\nclass = E", fillcolor="#e6843e"] ;
572 -> 574 ;
575 [label="EstimatedSalary <= 83423.2\ngini = 0.38\nsamples = 0.1%\nvalue = [0.75, 0.25]\nclass = E", fillcolor="#eeab7b"] ;
574 -> 575 ;
576 [label="gini = 0.0\nsamples = 0.1%\nvalue = [1.0, 0.0]\nclass = E", fillcolor="#e58139"] ;
575 -> 576 ;
577 [label="Spain <= 0.5\ngini = 0.44\nsamples = 0.0%\nvalue = [0.33, 0.67]\nclass = x", fillcolor="#9ccef2"] ;
575 -> 577 ;
578 [label="gini = 0.0\nsamples = 0.0%\nvalue = [1.0, 0.0]\nclass = E", fillcolor="#e58139"] ;
577 -> 578 ;
579 [label="gini = 0.0\nsamples = 0.0%\nvalue = [0.0, 1.0]\nclass = x", fillcolor="#399de5"] ;
577 -> 579 ;
580 [label="gini = 0.0\nsamples = 1.2%\nvalue = [1.0, 0.0]\nclass = E", fillcolor="#e58139"] ;
574 -> 580 ;
581 [label="Age <= 36.5\ngini = 0.28\nsamples = 0.2%\nvalue = [0.83, 0.17]\nclass = E", fillcolor="#ea9a61"] ;
571 -> 581 ;
582 [label="gini = 0.0\nsamples = 0.1%\nvalue = [1.0, 0.0]\nclass = E", fillcolor="#e58139"] ;
581 -> 582 ;
583 [label="gini = 0.0\nsamples = 0.0%\nvalue = [0.0, 1.0]\nclass = x", fillcolor="#399de5"] ;
581 -> 583 ;
584 [label="NumOfProducts <= 2.5\ngini = 0.24\nsamples = 0.9%\nvalue = [0.86, 0.14]\nclass = E", fillcolor="#e99558"] ;
546 -> 584 ;
585 [label="Tenure <= 6.5\ngini = 0.15\nsamples = 0.9%\nvalue = [0.92, 0.08]\nclass = E", fillcolor="#e78c4a"] ;
584 -> 585 ;
586 [label="EstimatedSalary <= 121875.37\ngini = 0.29\nsamples = 0.4%\nvalue = [0.83, 0.17]\nclass = E", fillcolor="#ea9b62"] ;
585 -> 586 ;
587 [label="gini = 0.0\nsamples = 0.2%\nvalue = [1.0, 0.0]\nclass = E", fillcolor="#e58139"] ;
586 -> 587 ;
588 [label="NumOfProducts <= 1.5\ngini = 0.46\nsamples = 0.2%\nvalue = [0.64, 0.36]\nclass = E", fillcolor="#f3c7a7"] ;
586 -> 588 ;
589 [label="EstimatedSalary <= 155710.28\ngini = 0.32\nsamples = 0.1%\nvalue = [0.2, 0.8]\nclass = x", fillcolor="#6ab6ec"] ;
588 -> 589 ;
590 [label="gini = 0.0\nsamples = 0.0%\nvalue = [0.0, 1.0]\nclass = x", fillcolor="#399de5"] ;
589 -> 590 ;
591 [label="gini = 0.0\nsamples = 0.0%\nvalue = [1.0, 0.0]\nclass = E", fillcolor="#e58139"] ;
589 -> 591 ;
592 [label="CreditScore <= 795.0\ngini = 0.2\nsamples = 0.1%\nvalue = [0.89, 0.11]\nclass = E", fillcolor="#e89152"] ;
588 -> 592 ;
593 [label="gini = 0.0\nsamples = 0.0%\nvalue = [0.0, 1.0]\nclass = x", fillcolor="#399de5"] ;
592 -> 593 ;
594 [label="gini = 0.0\nsamples = 0.1%\nvalue = [1.0, 0.0]\nclass = E", fillcolor="#e58139"] ;
592 -> 594 ;
595 [label="gini = 0.0\nsamples = 0.5%\nvalue = [1.0, 0.0]\nclass = E", fillcolor="#e58139"] ;
585 -> 595 ;
596 [label="gini = 0.0\nsamples = 0.0%\nvalue = [0.0, 1.0]\nclass = x", fillcolor="#399de5"] ;
584 -> 596 ;
597 [label="IsActiveMember <= 0.5\ngini = 0.46\nsamples = 2.2%\nvalue = [0.64, 0.36]\nclass = E", fillcolor="#f4c8a8"] ;
501 -> 597 ;
598 [label="EstimatedSalary <= 127335.94\ngini = 0.47\nsamples = 0.9%\nvalue = [0.39, 0.61]\nclass = x", fillcolor="#b5dbf5"] ;
597 -> 598 ;
599 [label="NumOfProducts <= 1.5\ngini = 0.5\nsamples = 0.4%\nvalue = [0.55, 0.45]\nclass = E", fillcolor="#fbeade"] ;
598 -> 599 ;
600 [label="Spain <= 0.5\ngini = 0.3\nsamples = 0.2%\nvalue = [0.18, 0.82]\nclass = x", fillcolor="#65b3eb"] ;
599 -> 600 ;
601 [label="Tenure <= 2.0\ngini = 0.32\nsamples = 0.2%\nvalue = [0.2, 0.8]\nclass = x", fillcolor="#6ab6ec"] ;
600 -> 601 ;
602 [label="EstimatedSalary <= 82960.23\ngini = 0.44\nsamples = 0.1%\nvalue = [0.33, 0.67]\nclass = x", fillcolor="#9ccef2"] ;
601 -> 602 ;
603 [label="gini = 0.0\nsamples = 0.0%\nvalue = [0.0, 1.0]\nclass = x", fillcolor="#399de5"] ;
602 -> 603 ;
604 [label="gini = 0.0\nsamples = 0.0%\nvalue = [1.0, 0.0]\nclass = E", fillcolor="#e58139"] ;
602 -> 604 ;
605 [label="gini = 0.0\nsamples = 0.1%\nvalue = [0.0, 1.0]\nclass = x", fillcolor="#399de5"] ;
601 -> 605 ;
606 [label="gini = 0.0\nsamples = 0.0%\nvalue = [0.0, 1.0]\nclass = x", fillcolor="#399de5"] ;
600 -> 606 ;
607 [label="CreditScore <= 748.5\ngini = 0.17\nsamples = 0.2%\nvalue = [0.91, 0.09]\nclass = E", fillcolor="#e88e4d"] ;
599 -> 607 ;
608 [label="gini = 0.0\nsamples = 0.2%\nvalue = [1.0, 0.0]\nclass = E", fillcolor="#e58139"] ;
607 -> 608 ;
609 [label="gini = 0.0\nsamples = 0.0%\nvalue = [0.0, 1.0]\nclass = x", fillcolor="#399de5"] ;
607 -> 609 ;
610 [label="NumOfProducts <= 1.5\ngini = 0.41\nsamples = 0.5%\nvalue = [0.29, 0.71]\nclass = x", fillcolor="#88c4ef"] ;
598 -> 610 ;
611 [label="gini = 0.0\nsamples = 0.3%\nvalue = [0.0, 1.0]\nclass = x", fillcolor="#399de5"] ;
610 -> 611 ;
612 [label="Age <= 50.0\ngini = 0.48\nsamples = 0.2%\nvalue = [0.59, 0.41]\nclass = E", fillcolor="#f7d9c4"] ;
610 -> 612 ;
613 [label="gini = 0.0\nsamples = 0.2%\nvalue = [1.0, 0.0]\nclass = E", fillcolor="#e58139"] ;
612 -> 613 ;
614 [label="NumOfProducts <= 2.5\ngini = 0.22\nsamples = 0.1%\nvalue = [0.12, 0.88]\nclass = x", fillcolor="#55abe9"] ;
612 -> 614 ;
615 [label="EstimatedSalary <= 174776.35\ngini = 0.5\nsamples = 0.0%\nvalue = [0.5, 0.5]\nclass = E", fillcolor="#ffffff"] ;
614 -> 615 ;
616 [label="gini = 0.0\nsamples = 0.0%\nvalue = [1.0, 0.0]\nclass = E", fillcolor="#e58139"] ;
615 -> 616 ;
617 [label="gini = 0.0\nsamples = 0.0%\nvalue = [0.0, 1.0]\nclass = x", fillcolor="#399de5"] ;
615 -> 617 ;
618 [label="gini = 0.0\nsamples = 0.0%\nvalue = [0.0, 1.0]\nclass = x", fillcolor="#399de5"] ;
614 -> 618 ;
619 [label="CreditScore <= 562.5\ngini = 0.31\nsamples = 1.3%\nvalue = [0.81, 0.19]\nclass = E", fillcolor="#eb9e67"] ;
597 -> 619 ;
620 [label="Tenure <= 1.5\ngini = 0.5\nsamples = 0.2%\nvalue = [0.54, 0.46]\nclass = E", fillcolor="#fbede3"] ;
619 -> 620 ;
621 [label="gini = 0.0\nsamples = 0.0%\nvalue = [1.0, 0.0]\nclass = E", fillcolor="#e58139"] ;
620 -> 621 ;
622 [label="Tenure <= 4.5\ngini = 0.48\nsamples = 0.2%\nvalue = [0.4, 0.6]\nclass = x", fillcolor="#bddef6"] ;
620 -> 622 ;
623 [label="NumOfProducts <= 1.5\ngini = 0.28\nsamples = 0.1%\nvalue = [0.17, 0.83]\nclass = x", fillcolor="#61b1ea"] ;
622 -> 623 ;
624 [label="gini = 0.0\nsamples = 0.0%\nvalue = [0.0, 1.0]\nclass = x", fillcolor="#399de5"] ;
623 -> 624 ;
625 [label="gini = 0.0\nsamples = 0.0%\nvalue = [1.0, 0.0]\nclass = E", fillcolor="#e58139"] ;
623 -> 625 ;
626 [label="Age <= 49.5\ngini = 0.38\nsamples = 0.1%\nvalue = [0.75, 0.25]\nclass = E", fillcolor="#eeab7b"] ;
622 -> 626 ;
627 [label="gini = 0.0\nsamples = 0.0%\nvalue = [1.0, 0.0]\nclass = E", fillcolor="#e58139"] ;
626 -> 627 ;
628 [label="Tenure <= 9.0\ngini = 0.5\nsamples = 0.0%\nvalue = [0.5, 0.5]\nclass = E", fillcolor="#ffffff"] ;
626 -> 628 ;
629 [label="gini = 0.0\nsamples = 0.0%\nvalue = [1.0, 0.0]\nclass = E", fillcolor="#e58139"] ;
628 -> 629 ;
630 [label="gini = 0.0\nsamples = 0.0%\nvalue = [0.0, 1.0]\nclass = x", fillcolor="#399de5"] ;
628 -> 630 ;
631 [label="Tenure <= 3.5\ngini = 0.24\nsamples = 1.1%\nvalue = [0.86, 0.14]\nclass = E", fillcolor="#e99559"] ;
619 -> 631 ;
632 [label="NumOfProducts <= 1.5\ngini = 0.45\nsamples = 0.4%\nvalue = [0.65, 0.35]\nclass = E", fillcolor="#f3c4a3"] ;
631 -> 632 ;
633 [label="Spain <= 0.5\ngini = 0.38\nsamples = 0.1%\nvalue = [0.25, 0.75]\nclass = x", fillcolor="#7bbeee"] ;
632 -> 633 ;
634 [label="gini = 0.0\nsamples = 0.1%\nvalue = [0.0, 1.0]\nclass = x", fillcolor="#399de5"] ;
633 -> 634 ;
635 [label="gini = 0.0\nsamples = 0.0%\nvalue = [1.0, 0.0]\nclass = E", fillcolor="#e58139"] ;
633 -> 635 ;
636 [label="NumOfProducts <= 2.5\ngini = 0.23\nsamples = 0.2%\nvalue = [0.87, 0.13]\nclass = E", fillcolor="#e99457"] ;
632 -> 636 ;
637 [label="gini = 0.0\nsamples = 0.2%\nvalue = [1.0, 0.0]\nclass = E", fillcolor="#e58139"] ;
636 -> 637 ;
638 [label="gini = 0.0\nsamples = 0.0%\nvalue = [0.0, 1.0]\nclass = x", fillcolor="#399de5"] ;
636 -> 638 ;
639 [label="Age <= 54.5\ngini = 0.08\nsamples = 0.8%\nvalue = [0.96, 0.04]\nclass = E", fillcolor="#e68641"] ;
631 -> 639 ;
640 [label="CreditScore <= 674.0\ngini = 0.21\nsamples = 0.3%\nvalue = [0.88, 0.12]\nclass = E", fillcolor="#e89253"] ;
639 -> 640 ;
641 [label="CreditScore <= 656.5\ngini = 0.35\nsamples = 0.2%\nvalue = [0.78, 0.22]\nclass = E", fillcolor="#eca572"] ;
640 -> 641 ;
642 [label="Tenure <= 8.5\ngini = 0.22\nsamples = 0.2%\nvalue = [0.88, 0.12]\nclass = E", fillcolor="#e99355"] ;
641 -> 642 ;
643 [label="gini = 0.0\nsamples = 0.1%\nvalue = [1.0, 0.0]\nclass = E", fillcolor="#e58139"] ;
642 -> 643 ;
644 [label="Age <= 48.5\ngini = 0.5\nsamples = 0.0%\nvalue = [0.5, 0.5]\nclass = E", fillcolor="#ffffff"] ;
642 -> 644 ;
645 [label="gini = 0.0\nsamples = 0.0%\nvalue = [1.0, 0.0]\nclass = E", fillcolor="#e58139"] ;
644 -> 645 ;
646 [label="gini = 0.0\nsamples = 0.0%\nvalue = [0.0, 1.0]\nclass = x", fillcolor="#399de5"] ;
644 -> 646 ;
647 [label="gini = 0.0\nsamples = 0.0%\nvalue = [0.0, 1.0]\nclass = x", fillcolor="#399de5"] ;
641 -> 647 ;
648 [label="gini = 0.0\nsamples = 0.1%\nvalue = [1.0, 0.0]\nclass = E", fillcolor="#e58139"] ;
640 -> 648 ;
649 [label="gini = 0.0\nsamples = 0.5%\nvalue = [1.0, 0.0]\nclass = E", fillcolor="#e58139"] ;
639 -> 649 ;
650 [label="Age <= 42.5\ngini = 0.36\nsamples = 62.6%\nvalue = [0.77, 0.23]\nclass = E", fillcolor="#eda876"] ;
0 -> 650 [labeldistance=2.5, labelangle=-45, headlabel="False"] ;
651 [label="CreditScore <= 402.5\ngini = 0.24\nsamples = 44.1%\nvalue = [0.86, 0.14]\nclass = E", fillcolor="#e99559"] ;
650 -> 651 ;
652 [label="gini = 0.0\nsamples = 0.1%\nvalue = [0.0, 1.0]\nclass = x", fillcolor="#399de5"] ;
651 -> 652 ;
653 [label="Age <= 36.5\ngini = 0.24\nsamples = 44.0%\nvalue = [0.86, 0.14]\nclass = E", fillcolor="#e99559"] ;
651 -> 653 ;
654 [label="CreditScore <= 426.0\ngini = 0.19\nsamples = 28.1%\nvalue = [0.9, 0.1]\nclass = E", fillcolor="#e89050"] ;
653 -> 654 ;
655 [label="Tenure <= 7.5\ngini = 0.43\nsamples = 0.2%\nvalue = [0.69, 0.31]\nclass = E", fillcolor="#f1ba93"] ;
654 -> 655 ;
656 [label="CreditScore <= 422.0\ngini = 0.17\nsamples = 0.1%\nvalue = [0.91, 0.09]\nclass = E", fillcolor="#e88e4d"] ;
655 -> 656 ;
657 [label="gini = 0.0\nsamples = 0.1%\nvalue = [1.0, 0.0]\nclass = E", fillcolor="#e58139"] ;
656 -> 657 ;
658 [label="gini = 0.0\nsamples = 0.0%\nvalue = [0.0, 1.0]\nclass = x", fillcolor="#399de5"] ;
656 -> 658 ;
659 [label="IsActiveMember <= 0.5\ngini = 0.32\nsamples = 0.0%\nvalue = [0.2, 0.8]\nclass = x", fillcolor="#6ab6ec"] ;
655 -> 659 ;
660 [label="gini = 0.0\nsamples = 0.0%\nvalue = [1.0, 0.0]\nclass = E", fillcolor="#e58139"] ;
659 -> 660 ;
661 [label="gini = 0.0\nsamples = 0.0%\nvalue = [0.0, 1.0]\nclass = x", fillcolor="#399de5"] ;
659 -> 661 ;
662 [label="NumOfProducts <= 2.5\ngini = 0.18\nsamples = 27.9%\nvalue = [0.9, 0.1]\nclass = E", fillcolor="#e88f4f"] ;
654 -> 662 ;
663 [label="Balance <= 183230.46\ngini = 0.17\nsamples = 27.5%\nvalue = [0.91, 0.09]\nclass = E", fillcolor="#e88e4d"] ;
662 -> 663 ;
664 [label="Germany <= 0.5\ngini = 0.16\nsamples = 26.9%\nvalue = [0.91, 0.09]\nclass = E", fillcolor="#e78d4b"] ;
663 -> 664 ;
665 [label="Balance <= 83696.07\ngini = 0.1\nsamples = 17.1%\nvalue = [0.95, 0.05]\nclass = E", fillcolor="#e68844"] ;
664 -> 665 ;
666 [label="Age <= 32.5\ngini = 0.22\nsamples = 2.3%\nvalue = [0.87, 0.13]\nclass = E", fillcolor="#e99356"] ;
665 -> 666 ;
667 [label="Age <= 22.5\ngini = 0.13\nsamples = 1.4%\nvalue = [0.93, 0.07]\nclass = E", fillcolor="#e78a47"] ;
666 -> 667 ;
668 [label="Spain <= 0.5\ngini = 0.4\nsamples = 0.1%\nvalue = [0.73, 0.27]\nclass = E", fillcolor="#efb083"] ;
667 -> 668 ;
669 [label="CreditScore <= 523.5\ngini = 0.24\nsamples = 0.1%\nvalue = [0.86, 0.14]\nclass = E", fillcolor="#e9965a"] ;
668 -> 669 ;
670 [label="gini = 0.0\nsamples = 0.0%\nvalue = [0.0, 1.0]\nclass = x", fillcolor="#399de5"] ;
669 -> 670 ;
671 [label="gini = 0.0\nsamples = 0.1%\nvalue = [1.0, 0.0]\nclass = E", fillcolor="#e58139"] ;
669 -> 671 ;
672 [label="EstimatedSalary <= 136926.07\ngini = 0.5\nsamples = 0.0%\nvalue = [0.5, 0.5]\nclass = E", fillcolor="#ffffff"] ;
668 -> 672 ;
673 [label="gini = 0.0\nsamples = 0.0%\nvalue = [1.0, 0.0]\nclass = E", fillcolor="#e58139"] ;
672 -> 673 ;
674 [label="gini = 0.0\nsamples = 0.0%\nvalue = [0.0, 1.0]\nclass = x", fillcolor="#399de5"] ;
672 -> 674 ;
675 [label="IsActiveMember <= 0.5\ngini = 0.07\nsamples = 1.2%\nvalue = [0.96, 0.04]\nclass = E", fillcolor="#e68641"] ;
667 -> 675 ;
676 [label="gini = 0.0\nsamples = 0.5%\nvalue = [1.0, 0.0]\nclass = E", fillcolor="#e58139"] ;
675 -> 676 ;
677 [label="Balance <= 58096.49\ngini = 0.12\nsamples = 0.8%\nvalue = [0.93, 0.07]\nclass = E", fillcolor="#e78a47"] ;
675 -> 677 ;
678 [label="CreditScore <= 659.5\ngini = 0.38\nsamples = 0.2%\nvalue = [0.75, 0.25]\nclass = E", fillcolor="#eeab7b"] ;
677 -> 678 ;
679 [label="gini = 0.0\nsamples = 0.1%\nvalue = [1.0, 0.0]\nclass = E", fillcolor="#e58139"] ;
678 -> 679 ;
680 [label="HasCrCard <= 0.5\ngini = 0.5\nsamples = 0.1%\nvalue = [0.5, 0.5]\nclass = E", fillcolor="#ffffff"] ;
678 -> 680 ;
681 [label="gini = 0.0\nsamples = 0.0%\nvalue = [1.0, 0.0]\nclass = E", fillcolor="#e58139"] ;
680 -> 681 ;
682 [label="Male <= 0.5\ngini = 0.44\nsamples = 0.1%\nvalue = [0.33, 0.67]\nclass = x", fillcolor="#9ccef2"] ;
680 -> 682 ;
683 [label="gini = 0.0\nsamples = 0.0%\nvalue = [0.0, 1.0]\nclass = x", fillcolor="#399de5"] ;
682 -> 683 ;
684 [label="gini = 0.0\nsamples = 0.0%\nvalue = [1.0, 0.0]\nclass = E", fillcolor="#e58139"] ;
682 -> 684 ;
685 [label="Age <= 26.5\ngini = 0.05\nsamples = 0.6%\nvalue = [0.97, 0.03]\nclass = E", fillcolor="#e6843e"] ;
677 -> 685 ;
686 [label="Tenure <= 2.5\ngini = 0.18\nsamples = 0.2%\nvalue = [0.9, 0.1]\nclass = E", fillcolor="#e88f4f"] ;
685 -> 686 ;
687 [label="Age <= 25.5\ngini = 0.28\nsamples = 0.1%\nvalue = [0.83, 0.17]\nclass = E", fillcolor="#ea9a61"] ;
686 -> 687 ;
688 [label="gini = 0.0\nsamples = 0.0%\nvalue = [1.0, 0.0]\nclass = E", fillcolor="#e58139"] ;
687 -> 688 ;
689 [label="CreditScore <= 661.5\ngini = 0.5\nsamples = 0.0%\nvalue = [0.5, 0.5]\nclass = E", fillcolor="#ffffff"] ;
687 -> 689 ;
690 [label="gini = 0.0\nsamples = 0.0%\nvalue = [1.0, 0.0]\nclass = E", fillcolor="#e58139"] ;
689 -> 690 ;
691 [label="gini = 0.0\nsamples = 0.0%\nvalue = [0.0, 1.0]\nclass = x", fillcolor="#399de5"] ;
689 -> 691 ;
692 [label="gini = 0.0\nsamples = 0.1%\nvalue = [1.0, 0.0]\nclass = E", fillcolor="#e58139"] ;
686 -> 692 ;
693 [label="gini = 0.0\nsamples = 0.5%\nvalue = [1.0, 0.0]\nclass = E", fillcolor="#e58139"] ;
685 -> 693 ;
694 [label="EstimatedSalary <= 20979.74\ngini = 0.35\nsamples = 0.9%\nvalue = [0.78, 0.22]\nclass = E", fillcolor="#eca572"] ;
666 -> 694 ;
695 [label="EstimatedSalary <= 15067.8\ngini = 0.49\nsamples = 0.1%\nvalue = [0.57, 0.43]\nclass = E", fillcolor="#f8e0ce"] ;
694 -> 695 ;
696 [label="EstimatedSalary <= 9318.48\ngini = 0.32\nsamples = 0.1%\nvalue = [0.8, 0.2]\nclass = E", fillcolor="#eca06a"] ;
695 -> 696 ;
697 [label="Age <= 34.0\ngini = 0.5\nsamples = 0.0%\nvalue = [0.5, 0.5]\nclass = E", fillcolor="#ffffff"] ;
696 -> 697 ;
698 [label="gini = 0.0\nsamples = 0.0%\nvalue = [0.0, 1.0]\nclass = x", fillcolor="#399de5"] ;
697 -> 698 ;
699 [label="gini = 0.0\nsamples = 0.0%\nvalue = [1.0, 0.0]\nclass = E", fillcolor="#e58139"] ;
697 -> 699 ;
700 [label="gini = 0.0\nsamples = 0.0%\nvalue = [1.0, 0.0]\nclass = E", fillcolor="#e58139"] ;
696 -> 700 ;
701 [label="gini = 0.0\nsamples = 0.0%\nvalue = [0.0, 1.0]\nclass = x", fillcolor="#399de5"] ;
695 -> 701 ;
702 [label="EstimatedSalary <= 70639.55\ngini = 0.31\nsamples = 0.8%\nvalue = [0.81, 0.19]\nclass = E", fillcolor="#eb9f68"] ;
694 -> 702 ;
703 [label="gini = 0.0\nsamples = 0.2%\nvalue = [1.0, 0.0]\nclass = E", fillcolor="#e58139"] ;
702 -> 703 ;
704 [label="Tenure <= 2.5\ngini = 0.38\nsamples = 0.6%\nvalue = [0.74, 0.26]\nclass = E", fillcolor="#eead7e"] ;
702 -> 704 ;
705 [label="Balance <= 76367.66\ngini = 0.48\nsamples = 0.2%\nvalue = [0.6, 0.4]\nclass = E", fillcolor="#f6d5bd"] ;
704 -> 705 ;
706 [label="gini = 0.0\nsamples = 0.1%\nvalue = [1.0, 0.0]\nclass = E", fillcolor="#e58139"] ;
705 -> 706 ;
707 [label="IsActiveMember <= 0.5\ngini = 0.24\nsamples = 0.1%\nvalue = [0.14, 0.86]\nclass = x", fillcolor="#5aade9"] ;
705 -> 707 ;
708 [label="gini = 0.0\nsamples = 0.0%\nvalue = [1.0, 0.0]\nclass = E", fillcolor="#e58139"] ;
707 -> 708 ;
709 [label="gini = 0.0\nsamples = 0.1%\nvalue = [0.0, 1.0]\nclass = x", fillcolor="#399de5"] ;
707 -> 709 ;
710 [label="NumOfProducts <= 1.5\ngini = 0.26\nsamples = 0.3%\nvalue = [0.85, 0.15]\nclass = E", fillcolor="#ea975c"] ;
704 -> 710 ;
711 [label="EstimatedSalary <= 95135.42\ngini = 0.32\nsamples = 0.3%\nvalue = [0.8, 0.2]\nclass = E", fillcolor="#eca06a"] ;
710 -> 711 ;
712 [label="gini = 0.0\nsamples = 0.0%\nvalue = [0.0, 1.0]\nclass = x", fillcolor="#399de5"] ;
711 -> 712 ;
713 [label="EstimatedSalary <= 114585.26\ngini = 0.14\nsamples = 0.2%\nvalue = [0.92, 0.08]\nclass = E", fillcolor="#e78c49"] ;
711 -> 713 ;
714 [label="IsActiveMember <= 0.5\ngini = 0.38\nsamples = 0.1%\nvalue = [0.75, 0.25]\nclass = E", fillcolor="#eeab7b"] ;
713 -> 714 ;
715 [label="gini = 0.0\nsamples = 0.0%\nvalue = [0.0, 1.0]\nclass = x", fillcolor="#399de5"] ;
714 -> 715 ;
716 [label="gini = 0.0\nsamples = 0.0%\nvalue = [1.0, 0.0]\nclass = E", fillcolor="#e58139"] ;
714 -> 716 ;
717 [label="gini = 0.0\nsamples = 0.2%\nvalue = [1.0, 0.0]\nclass = E", fillcolor="#e58139"] ;
713 -> 717 ;
718 [label="gini = 0.0\nsamples = 0.1%\nvalue = [1.0, 0.0]\nclass = E", fillcolor="#e58139"] ;
710 -> 718 ;
719 [label="CreditScore <= 581.5\ngini = 0.08\nsamples = 14.8%\nvalue = [0.96, 0.04]\nclass = E", fillcolor="#e68742"] ;
665 -> 719 ;
720 [label="Age <= 24.5\ngini = 0.18\nsamples = 3.4%\nvalue = [0.9, 0.1]\nclass = E", fillcolor="#e88f4f"] ;
719 -> 720 ;
721 [label="CreditScore <= 576.0\ngini = 0.4\nsamples = 0.3%\nvalue = [0.73, 0.27]\nclass = E", fillcolor="#efb083"] ;
720 -> 721 ;
722 [label="IsActiveMember <= 0.5\ngini = 0.21\nsamples = 0.2%\nvalue = [0.88, 0.12]\nclass = E", fillcolor="#e89253"] ;
721 -> 722 ;
723 [label="Spain <= 0.5\ngini = 0.5\nsamples = 0.1%\nvalue = [0.5, 0.5]\nclass = E", fillcolor="#ffffff"] ;
722 -> 723 ;
724 [label="gini = 0.0\nsamples = 0.0%\nvalue = [1.0, 0.0]\nclass = E", fillcolor="#e58139"] ;
723 -> 724 ;
725 [label="gini = 0.0\nsamples = 0.0%\nvalue = [0.0, 1.0]\nclass = x", fillcolor="#399de5"] ;
723 -> 725 ;
726 [label="gini = 0.0\nsamples = 0.2%\nvalue = [1.0, 0.0]\nclass = E", fillcolor="#e58139"] ;
722 -> 726 ;
727 [label="Balance <= 127355.95\ngini = 0.32\nsamples = 0.0%\nvalue = [0.2, 0.8]\nclass = x", fillcolor="#6ab6ec"] ;
721 -> 727 ;
728 [label="gini = 0.0\nsamples = 0.0%\nvalue = [1.0, 0.0]\nclass = E", fillcolor="#e58139"] ;
727 -> 728 ;
729 [label="gini = 0.0\nsamples = 0.0%\nvalue = [0.0, 1.0]\nclass = x", fillcolor="#399de5"] ;
727 -> 729 ;
730 [label="Spain <= 0.5\ngini = 0.15\nsamples = 3.1%\nvalue = [0.92, 0.08]\nclass = E", fillcolor="#e78c4a"] ;
720 -> 730 ;
731 [label="Balance <= 181327.16\ngini = 0.1\nsamples = 2.2%\nvalue = [0.95, 0.05]\nclass = E", fillcolor="#e68844"] ;
730 -> 731 ;
732 [label="NumOfProducts <= 1.5\ngini = 0.09\nsamples = 2.2%\nvalue = [0.95, 0.05]\nclass = E", fillcolor="#e68743"] ;
731 -> 732 ;
733 [label="Male <= 0.5\ngini = 0.05\nsamples = 1.6%\nvalue = [0.97, 0.03]\nclass = E", fillcolor="#e6853f"] ;
732 -> 733 ;
734 [label="Age <= 30.0\ngini = 0.12\nsamples = 0.6%\nvalue = [0.94, 0.06]\nclass = E", fillcolor="#e78946"] ;
733 -> 734 ;
735 [label="CreditScore <= 510.0\ngini = 0.23\nsamples = 0.2%\nvalue = [0.87, 0.13]\nclass = E", fillcolor="#e99457"] ;
734 -> 735 ;
736 [label="CreditScore <= 491.0\ngini = 0.5\nsamples = 0.0%\nvalue = [0.5, 0.5]\nclass = E", fillcolor="#ffffff"] ;
735 -> 736 ;
737 [label="gini = 0.0\nsamples = 0.0%\nvalue = [1.0, 0.0]\nclass = E", fillcolor="#e58139"] ;
736 -> 737 ;
738 [label="gini = 0.0\nsamples = 0.0%\nvalue = [0.0, 1.0]\nclass = x", fillcolor="#399de5"] ;
736 -> 738 ;
739 [label="Age <= 28.5\ngini = 0.14\nsamples = 0.2%\nvalue = [0.92, 0.08]\nclass = E", fillcolor="#e78c49"] ;
735 -> 739 ;
740 [label="gini = 0.0\nsamples = 0.1%\nvalue = [1.0, 0.0]\nclass = E", fillcolor="#e58139"] ;
739 -> 740 ;
741 [label="Balance <= 135800.29\ngini = 0.38\nsamples = 0.1%\nvalue = [0.75, 0.25]\nclass = E", fillcolor="#eeab7b"] ;
739 -> 741 ;
742 [label="gini = 0.0\nsamples = 0.1%\nvalue = [1.0, 0.0]\nclass = E", fillcolor="#e58139"] ;
741 -> 742 ;
743 [label="gini = 0.0\nsamples = 0.0%\nvalue = [0.0, 1.0]\nclass = x", fillcolor="#399de5"] ;
741 -> 743 ;
744 [label="gini = 0.0\nsamples = 0.3%\nvalue = [1.0, 0.0]\nclass = E", fillcolor="#e58139"] ;
734 -> 744 ;
745 [label="EstimatedSalary <= 154617.66\ngini = 0.03\nsamples = 1.0%\nvalue = [0.99, 0.01]\nclass = E", fillcolor="#e5833c"] ;
733 -> 745 ;
746 [label="gini = 0.0\nsamples = 0.9%\nvalue = [1.0, 0.0]\nclass = E", fillcolor="#e58139"] ;
745 -> 746 ;
747 [label="Age <= 27.5\ngini = 0.17\nsamples = 0.2%\nvalue = [0.91, 0.09]\nclass = E", fillcolor="#e88e4d"] ;
745 -> 747 ;
748 [label="gini = 0.0\nsamples = 0.0%\nvalue = [0.0, 1.0]\nclass = x", fillcolor="#399de5"] ;
747 -> 748 ;
749 [label="gini = 0.0\nsamples = 0.1%\nvalue = [1.0, 0.0]\nclass = E", fillcolor="#e58139"] ;
747 -> 749 ;
750 [label="Age <= 34.5\ngini = 0.18\nsamples = 0.6%\nvalue = [0.9, 0.1]\nclass = E", fillcolor="#e88f4e"] ;
732 -> 750 ;
751 [label="Tenure <= 7.5\ngini = 0.07\nsamples = 0.4%\nvalue = [0.96, 0.04]\nclass = E", fillcolor="#e68641"] ;
750 -> 751 ;
752 [label="gini = 0.0\nsamples = 0.3%\nvalue = [1.0, 0.0]\nclass = E", fillcolor="#e58139"] ;
751 -> 752 ;
753 [label="EstimatedSalary <= 144409.9\ngini = 0.28\nsamples = 0.1%\nvalue = [0.83, 0.17]\nclass = E", fillcolor="#ea9a61"] ;
751 -> 753 ;
754 [label="gini = 0.0\nsamples = 0.1%\nvalue = [1.0, 0.0]\nclass = E", fillcolor="#e58139"] ;
753 -> 754 ;
755 [label="gini = 0.0\nsamples = 0.0%\nvalue = [0.0, 1.0]\nclass = x", fillcolor="#399de5"] ;
753 -> 755 ;
756 [label="HasCrCard <= 0.5\ngini = 0.32\nsamples = 0.2%\nvalue = [0.8, 0.2]\nclass = E", fillcolor="#eca06a"] ;
750 -> 756 ;
757 [label="EstimatedSalary <= 102153.43\ngini = 0.44\nsamples = 0.1%\nvalue = [0.67, 0.33]\nclass = E", fillcolor="#f2c09c"] ;
756 -> 757 ;
758 [label="EstimatedSalary <= 91107.18\ngini = 0.38\nsamples = 0.0%\nvalue = [0.25, 0.75]\nclass = x", fillcolor="#7bbeee"] ;
757 -> 758 ;
759 [label="gini = 0.0\nsamples = 0.0%\nvalue = [1.0, 0.0]\nclass = E", fillcolor="#e58139"] ;
758 -> 759 ;
760 [label="gini = 0.0\nsamples = 0.0%\nvalue = [0.0, 1.0]\nclass = x", fillcolor="#399de5"] ;
758 -> 760 ;
761 [label="gini = 0.0\nsamples = 0.0%\nvalue = [1.0, 0.0]\nclass = E", fillcolor="#e58139"] ;
757 -> 761 ;
762 [label="gini = 0.0\nsamples = 0.1%\nvalue = [1.0, 0.0]\nclass = E", fillcolor="#e58139"] ;
756 -> 762 ;
763 [label="gini = 0.0\nsamples = 0.0%\nvalue = [0.0, 1.0]\nclass = x", fillcolor="#399de5"] ;
731 -> 763 ;
764 [label="Tenure <= 7.5\ngini = 0.26\nsamples = 0.9%\nvalue = [0.85, 0.15]\nclass = E", fillcolor="#ea985d"] ;
730 -> 764 ;
765 [label="NumOfProducts <= 1.5\ngini = 0.22\nsamples = 0.7%\nvalue = [0.88, 0.12]\nclass = E", fillcolor="#e99355"] ;
764 -> 765 ;
766 [label="Balance <= 123752.72\ngini = 0.18\nsamples = 0.6%\nvalue = [0.9, 0.1]\nclass = E", fillcolor="#e88f4f"] ;
765 -> 766 ;
767 [label="EstimatedSalary <= 87705.24\ngini = 0.34\nsamples = 0.2%\nvalue = [0.79, 0.21]\nclass = E", fillcolor="#eca36f"] ;
766 -> 767 ;
768 [label="Balance <= 113783.11\ngini = 0.5\nsamples = 0.1%\nvalue = [0.5, 0.5]\nclass = E", fillcolor="#ffffff"] ;
767 -> 768 ;
769 [label="gini = 0.0\nsamples = 0.0%\nvalue = [1.0, 0.0]\nclass = E", fillcolor="#e58139"] ;
768 -> 769 ;
770 [label="CreditScore <= 566.0\ngini = 0.38\nsamples = 0.1%\nvalue = [0.25, 0.75]\nclass = x", fillcolor="#7bbeee"] ;
768 -> 770 ;
771 [label="gini = 0.0\nsamples = 0.1%\nvalue = [0.0, 1.0]\nclass = x", fillcolor="#399de5"] ;
770 -> 771 ;
772 [label="gini = 0.0\nsamples = 0.0%\nvalue = [1.0, 0.0]\nclass = E", fillcolor="#e58139"] ;
770 -> 772 ;
773 [label="gini = 0.0\nsamples = 0.1%\nvalue = [1.0, 0.0]\nclass = E", fillcolor="#e58139"] ;
767 -> 773 ;
774 [label="Age <= 29.5\ngini = 0.07\nsamples = 0.3%\nvalue = [0.96, 0.04]\nclass = E", fillcolor="#e68641"] ;
766 -> 774 ;
775 [label="Age <= 28.0\ngini = 0.38\nsamples = 0.1%\nvalue = [0.75, 0.25]\nclass = E", fillcolor="#eeab7b"] ;
774 -> 775 ;
776 [label="gini = 0.0\nsamples = 0.0%\nvalue = [1.0, 0.0]\nclass = E", fillcolor="#e58139"] ;
775 -> 776 ;
777 [label="gini = 0.0\nsamples = 0.0%\nvalue = [0.0, 1.0]\nclass = x", fillcolor="#399de5"] ;
775 -> 777 ;
778 [label="gini = 0.0\nsamples = 0.3%\nvalue = [1.0, 0.0]\nclass = E", fillcolor="#e58139"] ;
774 -> 778 ;
779 [label="Age <= 34.5\ngini = 0.38\nsamples = 0.1%\nvalue = [0.75, 0.25]\nclass = E", fillcolor="#eeab7b"] ;
765 -> 779 ;
780 [label="gini = 0.0\nsamples = 0.1%\nvalue = [1.0, 0.0]\nclass = E", fillcolor="#e58139"] ;
779 -> 780 ;
781 [label="Balance <= 136585.41\ngini = 0.44\nsamples = 0.0%\nvalue = [0.33, 0.67]\nclass = x", fillcolor="#9ccef2"] ;
779 -> 781 ;
782 [label="gini = 0.0\nsamples = 0.0%\nvalue = [0.0, 1.0]\nclass = x", fillcolor="#399de5"] ;
781 -> 782 ;
783 [label="gini = 0.0\nsamples = 0.0%\nvalue = [1.0, 0.0]\nclass = E", fillcolor="#e58139"] ;
781 -> 783 ;
784 [label="Age <= 32.5\ngini = 0.4\nsamples = 0.2%\nvalue = [0.73, 0.27]\nclass = E", fillcolor="#efb083"] ;
764 -> 784 ;
785 [label="gini = 0.0\nsamples = 0.1%\nvalue = [1.0, 0.0]\nclass = E", fillcolor="#e58139"] ;
784 -> 785 ;
786 [label="gini = 0.0\nsamples = 0.0%\nvalue = [0.0, 1.0]\nclass = x", fillcolor="#399de5"] ;
784 -> 786 ;
787 [label="IsActiveMember <= 0.5\ngini = 0.05\nsamples = 11.5%\nvalue = [0.97, 0.03]\nclass = E", fillcolor="#e6843e"] ;
719 -> 787 ;
788 [label="Balance <= 175375.53\ngini = 0.08\nsamples = 5.9%\nvalue = [0.96, 0.04]\nclass = E", fillcolor="#e68641"] ;
787 -> 788 ;
789 [label="CreditScore <= 621.5\ngini = 0.07\nsamples = 5.7%\nvalue = [0.96, 0.04]\nclass = E", fillcolor="#e68640"] ;
788 -> 789 ;
790 [label="gini = 0.0\nsamples = 1.0%\nvalue = [1.0, 0.0]\nclass = E", fillcolor="#e58139"] ;
789 -> 790 ;
791 [label="EstimatedSalary <= 6544.3\ngini = 0.08\nsamples = 4.7%\nvalue = [0.96, 0.04]\nclass = E", fillcolor="#e68742"] ;
789 -> 791 ;
792 [label="Balance <= 106370.39\ngini = 0.35\nsamples = 0.1%\nvalue = [0.78, 0.22]\nclass = E", fillcolor="#eca572"] ;
791 -> 792 ;
793 [label="gini = 0.0\nsamples = 0.0%\nvalue = [0.0, 1.0]\nclass = x", fillcolor="#399de5"] ;
792 -> 793 ;
794 [label="gini = 0.0\nsamples = 0.1%\nvalue = [1.0, 0.0]\nclass = E", fillcolor="#e58139"] ;
792 -> 794 ;
795 [label="CreditScore <= 622.5\ngini = 0.08\nsamples = 4.5%\nvalue = [0.96, 0.04]\nclass = E", fillcolor="#e68641"] ;
791 -> 795 ;
796 [label="gini = 0.0\nsamples = 0.0%\nvalue = [0.0, 1.0]\nclass = x", fillcolor="#399de5"] ;
795 -> 796 ;
797 [label="CreditScore <= 632.5\ngini = 0.07\nsamples = 4.5%\nvalue = [0.96, 0.04]\nclass = E", fillcolor="#e68641"] ;
795 -> 797 ;
798 [label="NumOfProducts <= 1.5\ngini = 0.26\nsamples = 0.2%\nvalue = [0.85, 0.15]\nclass = E", fillcolor="#ea985d"] ;
797 -> 798 ;
799 [label="CreditScore <= 631.5\ngini = 0.48\nsamples = 0.1%\nvalue = [0.6, 0.4]\nclass = E", fillcolor="#f6d5bd"] ;
798 -> 799 ;
800 [label="gini = 0.0\nsamples = 0.1%\nvalue = [1.0, 0.0]\nclass = E", fillcolor="#e58139"] ;
799 -> 800 ;
801 [label="gini = 0.0\nsamples = 0.0%\nvalue = [0.0, 1.0]\nclass = x", fillcolor="#399de5"] ;
799 -> 801 ;
802 [label="gini = 0.0\nsamples = 0.1%\nvalue = [1.0, 0.0]\nclass = E", fillcolor="#e58139"] ;
798 -> 802 ;
803 [label="NumOfProducts <= 1.5\ngini = 0.06\nsamples = 4.3%\nvalue = [0.97, 0.03]\nclass = E", fillcolor="#e6853f"] ;
797 -> 803 ;
804 [label="CreditScore <= 750.5\ngini = 0.08\nsamples = 3.4%\nvalue = [0.96, 0.04]\nclass = E", fillcolor="#e68642"] ;
803 -> 804 ;
805 [label="Balance <= 124208.98\ngini = 0.1\nsamples = 2.7%\nvalue = [0.95, 0.05]\nclass = E", fillcolor="#e68844"] ;
804 -> 805 ;
806 [label="Tenure <= 8.5\ngini = 0.15\nsamples = 1.3%\nvalue = [0.92, 0.08]\nclass = E", fillcolor="#e78c4a"] ;
805 -> 806 ;
807 [label="Balance <= 124135.32\ngini = 0.11\nsamples = 1.1%\nvalue = [0.94, 0.06]\nclass = E", fillcolor="#e78945"] ;
806 -> 807 ;
808 [label="Balance <= 120738.25\ngini = 0.07\nsamples = 1.1%\nvalue = [0.97, 0.03]\nclass = E", fillcolor="#e68640"] ;
807 -> 808 ;
809 [label="EstimatedSalary <= 94890.91\ngini = 0.03\nsamples = 1.0%\nvalue = [0.99, 0.01]\nclass = E", fillcolor="#e5833c"] ;
808 -> 809 ;
810 [label="Balance <= 87014.77\ngini = 0.08\nsamples = 0.3%\nvalue = [0.96, 0.04]\nclass = E", fillcolor="#e68642"] ;
809 -> 810 ;
811 [label="Balance <= 86611.87\ngini = 0.38\nsamples = 0.1%\nvalue = [0.75, 0.25]\nclass = E", fillcolor="#eeab7b"] ;
810 -> 811 ;
812 [label="gini = 0.0\nsamples = 0.0%\nvalue = [1.0, 0.0]\nclass = E", fillcolor="#e58139"] ;
811 -> 812 ;
813 [label="gini = 0.0\nsamples = 0.0%\nvalue = [0.0, 1.0]\nclass = x", fillcolor="#399de5"] ;
811 -> 813 ;
814 [label="gini = 0.0\nsamples = 0.3%\nvalue = [1.0, 0.0]\nclass = E", fillcolor="#e58139"] ;
810 -> 814 ;
815 [label="gini = 0.0\nsamples = 0.7%\nvalue = [1.0, 0.0]\nclass = E", fillcolor="#e58139"] ;
809 -> 815 ;
816 [label="Age <= 26.0\ngini = 0.32\nsamples = 0.1%\nvalue = [0.8, 0.2]\nclass = E", fillcolor="#eca06a"] ;
808 -> 816 ;
817 [label="gini = 0.0\nsamples = 0.0%\nvalue = [0.0, 1.0]\nclass = x", fillcolor="#399de5"] ;
816 -> 817 ;
818 [label="gini = 0.0\nsamples = 0.1%\nvalue = [1.0, 0.0]\nclass = E", fillcolor="#e58139"] ;
816 -> 818 ;
819 [label="gini = 0.0\nsamples = 0.0%\nvalue = [0.0, 1.0]\nclass = x", fillcolor="#399de5"] ;
807 -> 819 ;
820 [label="Balance <= 106714.14\ngini = 0.4\nsamples = 0.2%\nvalue = [0.73, 0.27]\nclass = E", fillcolor="#efb083"] ;
806 -> 820 ;
821 [label="gini = 0.0\nsamples = 0.1%\nvalue = [1.0, 0.0]\nclass = E", fillcolor="#e58139"] ;
820 -> 821 ;
822 [label="gini = 0.0\nsamples = 0.1%\nvalue = [0.0, 1.0]\nclass = x", fillcolor="#399de5"] ;
820 -> 822 ;
823 [label="Male <= 0.5\ngini = 0.04\nsamples = 1.4%\nvalue = [0.98, 0.02]\nclass = E", fillcolor="#e6843d"] ;
805 -> 823 ;
824 [label="gini = 0.0\nsamples = 0.4%\nvalue = [1.0, 0.0]\nclass = E", fillcolor="#e58139"] ;
823 -> 824 ;
825 [label="EstimatedSalary <= 40106.65\ngini = 0.06\nsamples = 1.0%\nvalue = [0.97, 0.03]\nclass = E", fillcolor="#e6853f"] ;
823 -> 825 ;
826 [label="Balance <= 153439.78\ngini = 0.3\nsamples = 0.2%\nvalue = [0.82, 0.18]\nclass = E", fillcolor="#eb9d65"] ;
825 -> 826 ;
827 [label="gini = 0.0\nsamples = 0.2%\nvalue = [1.0, 0.0]\nclass = E", fillcolor="#e58139"] ;
826 -> 827 ;
828 [label="Spain <= 0.5\ngini = 0.44\nsamples = 0.1%\nvalue = [0.33, 0.67]\nclass = x", fillcolor="#9ccef2"] ;
826 -> 828 ;
829 [label="gini = 0.0\nsamples = 0.0%\nvalue = [0.0, 1.0]\nclass = x", fillcolor="#399de5"] ;
828 -> 829 ;
830 [label="gini = 0.0\nsamples = 0.0%\nvalue = [1.0, 0.0]\nclass = E", fillcolor="#e58139"] ;
828 -> 830 ;
831 [label="gini = 0.0\nsamples = 0.8%\nvalue = [1.0, 0.0]\nclass = E", fillcolor="#e58139"] ;
825 -> 831 ;
832 [label="gini = 0.0\nsamples = 0.7%\nvalue = [1.0, 0.0]\nclass = E", fillcolor="#e58139"] ;
804 -> 832 ;
833 [label="gini = 0.0\nsamples = 1.0%\nvalue = [1.0, 0.0]\nclass = E", fillcolor="#e58139"] ;
803 -> 833 ;
834 [label="Balance <= 175476.77\ngini = 0.24\nsamples = 0.2%\nvalue = [0.86, 0.14]\nclass = E", fillcolor="#e9965a"] ;
788 -> 834 ;
835 [label="gini = 0.0\nsamples = 0.0%\nvalue = [0.0, 1.0]\nclass = x", fillcolor="#399de5"] ;
834 -> 835 ;
836 [label="gini = 0.0\nsamples = 0.2%\nvalue = [1.0, 0.0]\nclass = E", fillcolor="#e58139"] ;
834 -> 836 ;
837 [label="Balance <= 155638.27\ngini = 0.02\nsamples = 5.6%\nvalue = [0.99, 0.01]\nclass = E", fillcolor="#e5833c"] ;
787 -> 837 ;
838 [label="CreditScore <= 607.5\ngini = 0.02\nsamples = 5.0%\nvalue = [0.99, 0.01]\nclass = E", fillcolor="#e5823b"] ;
837 -> 838 ;
